the 0.527035 0.563620 -0.233312 0.765458 -0.016030 -0.064192 -0.949092 0.518468 -0.573805 -0.229229 -0.410483 0.208719 -0.501606 -0.081494 0.173580 0.588826 -0.234992 -0.100256 0.484097 -0.009756 -0.539841 0.412993 -0.176930 -0.296515 -0.146654 0.006194 0.132280 0.133275 0.247220 -0.180347 -0.952793 -0.174350 0.336232 -0.475216 -0.199456 0.284716 -0.085740 -0.085621 -0.110414 0.184163 -0.026152 -0.027283 -0.270577 -0.034547 -0.251374 0.322982 0.292886 0.570154 0.563427 -0.073874
a 0.579228 0.587309 -0.104400 0.846104 -0.364767 0.022745 -1.077712 0.494096 -0.227020 -0.132492 -0.731468 0.123469 -0.101944 -0.027506 0.347038 0.454519 0.102773 0.179532 0.498062 -0.023108 -0.128929 -0.092228 -0.350423 -0.083084 0.098959 -0.069417 0.155305 0.020195 0.415952 -0.173274 -0.950668 -0.393147 0.009640 -0.455755 -0.382272 0.270542 0.352943 -0.035028 -0.148392 0.327099 -0.053557 -0.192116 0.061360 0.199264 -0.530902 -0.162008 0.344340 0.461341 0.416630 0.390669
to 0.299772 0.655199 -0.269215 0.684925 -0.154972 0.130394 -0.503921 0.147291 0.079057 0.139001 -0.462529 0.163393 -0.434619 0.180877 0.466599 0.152987 -0.267152 0.160236 0.566827 0.095240 -0.282406 0.525116 -0.004020 -0.097005 -0.250786 -0.134979 0.235332 0.156524 0.262452 0.033324 -0.779931 -0.289719 0.204737 -0.542957 -0.425934 0.346108 -0.131410 -0.092063 -0.187823 0.331803 -0.351901 -0.260077 0.019808 -0.133614 0.097611 -0.114036 0.225990 0.223609 0.229117 0.124402
I 0.206328 0.675045 -0.298728 0.763405 -0.311271 0.096638 -0.725398 0.075190 0.165287 0.180622 -0.438205 0.207309 -0.322507 0.206676 0.478706 0.315299 -0.353040 0.331638 0.779420 0.048378 -0.148404 0.599850 -0.069688 -0.260946 -0.051609 -0.129614 0.243959 0.018760 0.248424 0.014669 -0.785014 -0.316799 0.066696 -0.617784 -0.514875 0.478977 -0.227711 -0.149656 -0.374225 0.317534 -0.420825 -0.374930 0.179166 -0.099275 0.277610 -0.101231 0.081937 0.121072 0.309208 0.279598
= 0.766080 -0.077282 0.397126 0.220719 -0.226596 -0.376345 -0.831699 0.505717 -0.145852 -0.414521 -0.663558 0.260047 0.819986 -0.401724 -0.492776 0.378254 0.805933 0.091546 -0.407576 0.058073 -0.121900 -0.813842 -0.944399 0.128780 0.512676 -0.261384 -0.025300 0.022166 0.510765 -0.723586 -0.534870 -0.374611 -0.673533 0.049457 0.060235 -0.205576 0.907336 0.462185 0.268230 0.251475 0.059842 -0.304422 0.367917 0.584378 -1.270542 -0.381297 0.601716 0.704089 0.310187 0.526803
is 0.255976 0.496400 -0.243082 0.600867 0.014621 -0.026156 -0.778017 0.174758 -0.363642 -0.040749 -0.370322 0.097486 -0.429735 -0.169461 0.302298 0.316845 -0.209333 -0.030162 0.520147 0.178462 -0.354289 0.111062 -0.114400 -0.264240 -0.117182 -0.009864 0.215508 0.051389 0.320045 -0.202862 -0.715879 -0.207397 0.216354 -0.471753 -0.195852 0.260846 -0.095103 -0.069732 -0.176578 0.148970 -0.214253 -0.034469 -0.129805 0.082544 -0.192181 0.145874 0.328379 0.355511 0.413697 0.219443
that 0.138648 0.655233 -0.343506 0.664516 -0.057678 0.178671 -0.462832 0.155128 -0.084484 0.167810 -0.232477 0.093642 -0.605974 0.063596 0.490665 0.148850 -0.458576 0.034648 0.602194 0.063870 -0.294586 0.413861 0.025316 -0.174987 -0.298502 0.009888 0.293073 0.107447 0.102662 0.133436 -0.637638 -0.131906 0.298097 -0.550249 -0.356411 0.410106 -0.261040 -0.214499 -0.229597 0.200184 -0.236507 -0.101885 -0.191159 -0.129533 0.243087 0.192929 0.203441 0.259755 0.244316 0.003142
of 0.289638 0.509004 -0.219328 0.640941 -0.161679 0.049581 -0.725419 0.334637 -0.255592 -0.050663 -0.370259 0.053853 -0.511784 -0.000973 0.288801 0.406431 -0.237696 0.005460 0.515170 0.011423 -0.200985 0.327354 -0.041360 -0.182949 -0.002376 0.028555 0.094779 0.028723 0.266186 0.013476 -0.724023 -0.242423 0.288261 -0.389964 -0.348989 0.291339 -0.093414 -0.189918 -0.188838 0.154468 -0.129903 -0.062043 -0.082878 -0.077395 -0.029630 0.114692 0.168942 0.248118 0.349095 0.077629
and 0.302581 0.470998 -0.197433 0.581074 -0.132032 0.017169 -0.639283 0.251063 -0.177387 -0.016634 -0.372689 0.135059 -0.227773 -0.027587 0.324273 0.287809 -0.122132 0.068845 0.421711 0.110264 -0.179887 0.218908 -0.144074 -0.021965 0.004841 -0.082378 0.144572 0.076592 0.280649 -0.082795 -0.718369 -0.234577 0.137467 -0.350673 -0.319204 0.241535 0.052168 -0.006208 -0.129081 0.191822 -0.186765 -0.120380 0.037332 0.021986 -0.148124 -0.017525 0.209829 0.287364 0.362967 0.171241
you 0.109104 0.695147 -0.264936 0.638688 -0.217675 0.309929 -0.174873 0.449469 0.157801 0.207951 -0.262681 0.010277 -0.666954 0.381791 0.555749 -0.034330 -0.421585 0.014770 0.445163 -0.173298 -0.185411 0.100458 -0.072105 0.024067 -0.322693 0.180073 0.268859 0.085411 0.021945 0.366633 -0.705024 -0.411195 0.135990 -0.686840 -0.490038 0.482456 0.035905 -0.201372 0.025526 0.389506 -0.013316 -0.237531 -0.306450 -0.181348 0.287996 0.117244 0.371452 0.435861 -0.122218 -0.089258
in 0.348859 0.378221 -0.172268 0.548897 -0.115163 0.018867 -0.728339 0.227641 -0.226076 -0.103295 -0.410843 0.086330 -0.225858 -0.048047 0.243227 0.384390 -0.049340 0.079776 0.387737 0.089846 -0.203526 0.097990 -0.177037 -0.164259 0.022350 -0.055369 0.158236 0.012324 0.259003 -0.146113 -0.643645 -0.231172 0.081514 -0.383117 -0.222547 0.185392 0.058380 -0.018696 -0.170296 0.170220 -0.192829 -0.068685 0.031330 0.063388 -0.218072 -0.006343 0.244432 0.298297 0.358017 0.263798
it 0.123657 0.598457 -0.303901 0.593595 -0.038337 0.086887 -0.567159 0.093478 -0.091416 0.125115 -0.157145 0.159640 -0.491842 0.159514 0.478963 0.169441 -0.353782 0.092660 0.543833 0.116752 -0.251749 0.242917 -0.012120 -0.108785 -0.250175 0.143062 0.333050 0.095391 0.097581 0.005631 -0.584445 -0.125885 0.339338 -0.524120 -0.312416 0.228353 -0.125885 -0.052123 -0.114715 0.247594 -0.148422 -0.108974 -0.207109 -0.097937 0.198162 0.143314 0.170468 0.372021 0.220770 0.129013
for 0.326341 0.457081 -0.141990 0.602459 -0.164527 0.010444 -0.632012 0.292511 -0.221720 -0.034391 -0.394126 0.113315 -0.185944 -0.061813 0.249704 0.273923 -0.054602 0.045905 0.385541 0.033680 -0.154611 0.076791 -0.197185 -0.073237 0.033186 -0.057117 0.143098 0.028071 0.285461 -0.061210 -0.696382 -0.194328 0.049595 -0.356652 -0.269893 0.220514 0.155389 -0.054084 -0.118330 0.186096 -0.112735 -0.107801 -0.031668 0.080820 -0.280691 0.017415 0.244774 0.377097 0.353548 0.211280
this 0.186410 0.392907 -0.205617 0.474099 -0.057208 0.005947 -0.525490 0.119222 -0.087437 0.009431 -0.304082 0.120245 -0.283813 -0.008354 0.221175 0.252331 -0.196884 0.087900 0.396358 0.093053 -0.176868 0.228206 -0.070801 -0.142829 -0.042771 -0.070759 0.159404 0.015020 0.165183 -0.083457 -0.509995 -0.210974 0.113571 -0.343690 -0.255799 0.235790 -0.102398 -0.054800 -0.169494 0.163677 -0.257053 -0.131463 0.037393 0.016006 0.015504 0.025963 0.184097 0.199413 0.279475 0.148493
on 0.183850 0.415448 -0.194767 0.489238 -0.031426 0.091832 -0.527885 0.139722 -0.198309 0.001177 -0.246115 0.092101 -0.424375 -0.015103 0.284954 0.232303 -0.254824 0.024876 0.436432 0.089559 -0.229697 0.208016 -0.067059 -0.189128 -0.100800 -0.005885 0.141699 0.069454 0.188147 -0.011284 -0.534745 -0.163888 0.214445 -0.374262 -0.228388 0.275369 -0.106242 -0.083938 -0.184936 0.134027 -0.157188 -0.015194 -0.092859 -0.053886 0.046130 0.133970 0.176830 0.231753 0.290495 0.093826
be 0.123546 0.517836 -0.236551 0.542400 -0.109356 0.200906 -0.194448 0.203030 0.138654 0.141684 -0.221522 0.077727 -0.410995 0.216500 0.455191 0.047012 -0.336052 0.136144 0.332970 -0.064982 -0.141367 0.343487 0.055209 0.011852 -0.246235 -0.029390 0.190022 0.092107 0.061343 0.194702 -0.517828 -0.204212 0.158512 -0.420913 -0.369337 0.344554 -0.104754 -0.123513 -0.124722 0.174792 -0.195965 -0.108501 -0.060662 -0.089324 0.167858 -0.013994 0.194902 0.247310 0.058649 -0.009954
have 0.177664 0.573137 -0.226008 0.591512 -0.234472 0.162418 -0.434822 0.209348 0.046937 0.098077 -0.346495 0.078848 -0.360349 0.212317 0.437944 0.180918 -0.241491 0.119780 0.507973 -0.028853 -0.167769 0.317947 -0.046981 -0.094356 -0.127349 0.012702 0.154836 0.048593 0.191078 0.136283 -0.637195 -0.284356 0.090955 -0.484813 -0.377609 0.348461 -0.042350 -0.112221 -0.179983 0.269739 -0.198656 -0.188689 -0.016930 -0.113995 0.147887 -0.005128 0.179070 0.215681 0.137435 0.104370
or 0.166847 0.343328 -0.120473 0.388733 -0.112613 0.024107 -0.369227 0.078543 -0.092423 -0.006204 -0.220629 0.056470 -0.209757 0.046881 0.228134 0.157061 -0.112632 0.085663 0.348401 0.025871 -0.104671 0.172946 -0.021703 -0.135703 -0.055789 -0.001616 0.091776 0.034286 0.145622 0.052249 -0.433012 -0.109326 0.118011 -0.264984 -0.199702 0.191077 -0.023728 -0.078684 -0.142679 0.116544 -0.117328 -0.050648 -0.027150 -0.028519 -0.035838 0.009245 0.110713 0.162133 0.195725 0.112455
can 0.113893 0.472007 -0.178712 0.491773 -0.179877 0.164734 -0.222186 0.287125 0.102992 0.125508 -0.206306 0.089319 -0.399991 0.196133 0.338122 0.066765 -0.292587 0.068901 0.380133 -0.100453 -0.166843 0.189859 -0.059428 -0.076362 -0.166542 0.036781 0.185863 0.061247 0.074091 0.171452 -0.523836 -0.219034 0.064719 -0.475926 -0.326429 0.353130 -0.080489 -0.143229 -0.094163 0.224576 -0.073666 -0.196989 -0.129738 -0.077588 0.202800 0.066863 0.205772 0.268876 0.038430 -0.039260
with 0.163114 0.242605 -0.111472 0.315830 -0.053189 0.031564 -0.434039 0.095419 -0.173526 -0.053251 -0.185067 0.063921 -0.140814 -0.015350 0.169268 0.231000 -0.028663 0.038204 0.227528 0.083596 -0.115389 0.077295 -0.061177 -0.058945 -0.001619 0.031862 0.085158 0.012703 0.148968 -0.069598 -0.333175 -0.068911 0.112836 -0.180679 -0.132665 0.048473 0.043671 0.003055 -0.077599 0.072788 -0.093037 -0.005400 0.004566 0.008111 -0.100086 0.031099 0.078829 0.150168 0.234627 0.134414
if -0.033813 0.249890 -0.070487 0.212771 0.043195 0.025876 -0.123157 0.115241 -0.015193 0.101529 0.000034 -0.031347 -0.200539 0.070346 0.190359 0.001425 -0.132904 -0.068116 0.159122 0.008987 -0.053665 0.006225 0.050870 0.066076 -0.132068 0.108199 0.132371 -0.013445 -0.010637 0.073860 -0.239062 -0.058759 0.100664 -0.266582 -0.132029 0.050959 -0.015396 -0.026658 0.070037 0.014779 0.005444 -0.047040 -0.195057 -0.089642 0.022872 0.064673 0.068153 0.179082 0.020400 -0.001031
not -0.005765 0.324381 -0.123532 0.311460 0.005962 0.051259 -0.275153 -0.007809 -0.137250 0.067741 -0.042065 0.024885 -0.310617 0.004574 0.230511 0.112572 -0.198434 -0.057480 0.303867 0.049938 -0.182576 0.120692 0.079360 -0.180856 -0.154882 0.076077 0.146668 0.019224 0.106663 0.022847 -0.289547 0.012693 0.198980 -0.296633 -0.104313 0.118377 -0.175675 -0.135272 -0.124106 0.036304 -0.078197 0.042792 -0.173706 -0.079072 0.049157 0.205016 0.083074 0.124719 0.190314 0.034692
using 0.187361 0.282715 -0.087569 0.354800 -0.129874 0.062383 -0.424200 0.120693 -0.157278 -0.038581 -0.227481 0.058847 -0.127423 0.014503 0.207427 0.220607 -0.081091 0.039524 0.218948 0.021764 -0.087888 0.140873 -0.088333 -0.086683 -0.002205 -0.033287 0.063054 0.034962 0.113407 -0.009433 -0.399179 -0.102625 0.053315 -0.185714 -0.125693 0.177496 0.019760 -0.037243 -0.115670 0.081355 -0.089909 0.006463 -0.012252 0.011699 -0.108697 0.017277 0.073931 0.164984 0.221598 0.098972
an 0.094961 0.306372 -0.161940 0.372937 -0.037718 0.076258 -0.254054 0.078144 -0.020706 0.036981 -0.211356 0.027608 -0.250000 0.054191 0.269552 0.106146 -0.166229 0.046662 0.328802 0.002697 -0.118450 0.233476 0.057146 -0.043896 -0.116979 -0.067953 0.060345 0.003532 0.105837 0.069299 -0.358057 -0.116339 0.115445 -0.281093 -0.178272 0.201418 -0.053404 -0.070299 -0.111364 0.085301 -0.158655 -0.054805 -0.024987 -0.036724 0.008625 0.021181 0.118616 0.101815 0.126339 0.064181
your 0.039192 0.311113 -0.181114 0.245652 -0.055441 0.237211 -0.021945 0.158302 0.038161 0.111886 -0.089984 0.009242 -0.465308 0.169764 0.300219 -0.067472 -0.259531 -0.051376 0.235381 -0.003500 -0.144847 0.088099 0.039888 -0.038788 -0.182596 0.062452 0.160336 0.078189 0.030328 0.229490 -0.277520 -0.159455 0.181819 -0.303059 -0.237589 0.266023 -0.098579 -0.122598 -0.039718 0.157853 -0.095996 -0.062871 -0.145955 -0.177492 0.249593 0.086423 0.156887 0.094463 -0.070409 -0.082807
would 0.097080 0.377585 -0.164560 0.411058 -0.125570 0.146253 -0.135405 0.188937 0.153172 0.079839 -0.191910 0.091073 -0.207442 0.183883 0.343700 0.068760 -0.239769 0.155756 0.210585 -0.103736 -0.066206 0.237190 -0.009723 0.032250 -0.137650 -0.027599 0.116797 0.059657 0.040773 0.140262 -0.375358 -0.185056 0.061674 -0.324219 -0.281461 0.278991 -0.014511 -0.040639 -0.089986 0.109819 -0.162875 -0.099655 -0.001901 -0.036076 0.096911 -0.080663 0.153484 0.219562 0.037579 0.029546
use 0.067571 0.459097 -0.180114 0.431106 -0.165119 0.168649 -0.178688 0.207926 0.127537 0.181776 -0.186474 0.029855 -0.377126 0.240091 0.373944 -0.008785 -0.251346 0.079982 0.357001 -0.074100 -0.085307 0.153223 -0.016620 0.012668 -0.202081 0.052089 0.159854 0.033851 0.044777 0.194777 -0.438321 -0.233926 0.096876 -0.438840 -0.312355 0.306846 -0.000851 -0.116652 -0.022816 0.254459 -0.046175 -0.162356 -0.155070 -0.089352 0.184471 0.039853 0.169071 0.227634 -0.005846 -0.011907
as 0.119468 0.300839 -0.102012 0.359524 -0.175388 -0.008987 -0.429709 0.109318 0.013334 0.017606 -0.175639 0.106355 -0.114348 0.092440 0.172157 0.180691 -0.095955 0.153169 0.301438 0.060278 -0.078867 0.148662 -0.062651 0.010510 -0.035735 0.060298 0.064944 0.072319 0.135856 -0.044948 -0.397652 -0.126115 0.099561 -0.220012 -0.207603 0.178207 0.034108 0.018536 -0.045893 0.158630 -0.071373 -0.130968 0.009516 0.022383 -0.021080 -0.069463 0.039251 0.180796 0.165319 0.154148
are 0.072372 0.255394 -0.103983 0.266389 -0.060748 0.113100 -0.114247 0.244562 -0.061127 0.012629 -0.147870 -0.045991 -0.240661 0.097860 0.186961 0.059772 -0.160327 -0.037631 0.146389 -0.067203 -0.074954 0.035610 -0.057273 0.023036 -0.110608 0.076320 0.081319 0.025762 -0.026974 0.143106 -0.328775 -0.135907 0.042289 -0.234036 -0.149369 0.211402 0.016274 -0.111006 0.028908 0.115086 0.020410 -0.063738 -0.163446 -0.025023 0.013451 0.083965 0.150906 0.187831 -0.029928 -0.037780
my 0.215602 0.181727 -0.030492 0.283227 -0.088701 -0.039567 -0.455356 0.084954 -0.069093 -0.051600 -0.282648 0.090747 -0.029951 -0.080606 0.094488 0.220344 0.036753 0.112014 0.214823 0.118071 -0.085758 0.017722 -0.189201 -0.094001 0.108454 -0.097111 0.093228 0.015132 0.241544 -0.187361 -0.390740 -0.167276 -0.024849 -0.198535 -0.138645 0.100955 0.082972 0.023408 -0.089121 0.135887 -0.147571 -0.122656 0.133879 0.108990 -0.181520 -0.097929 0.148996 0.151943 0.247197 0.228533
will 0.055480 0.379029 -0.224816 0.349753 0.005172 0.169563 -0.160043 0.063740 -0.013929 0.131381 -0.067244 0.037814 -0.470573 0.094120 0.340169 0.008931 -0.324438 -0.004517 0.307283 0.028108 -0.181288 0.217590 0.066541 -0.105209 -0.243608 0.042294 0.197753 0.100270 -0.002278 0.137975 -0.340843 -0.073060 0.246818 -0.315019 -0.217881 0.236316 -0.184882 -0.144727 -0.112199 0.126105 -0.134984 -0.027933 -0.165535 -0.147574 0.242567 0.164010 0.120098 0.153390 0.073383 -0.055627
return 0.166672 -0.387752 0.426093 -0.342457 -0.081579 -0.313099 0.156997 0.252563 0.088056 -0.208496 0.091487 0.093865 0.632845 -0.280744 -0.609754 0.010393 0.513354 -0.064411 -0.463827 -0.129339 -0.030568 -0.451788 -0.328220 0.062792 0.300871 -0.054573 -0.145133 0.059426 0.071812 -0.341201 0.207170 0.092941 -0.393623 0.319028 0.311566 -0.271260 0.240119 0.097878 0.182637 -0.058484 0.324502 -0.141713 0.052815 0.283941 -0.427848 -0.072533 0.047066 0.137709 0.021623 -0.172106
when 0.040542 0.342013 -0.186759 0.286224 0.008205 0.136392 -0.178628 0.116908 -0.027804 0.054031 -0.072544 0.015816 -0.381660 0.142535 0.285173 0.035174 -0.261196 -0.016602 0.283698 -0.001180 -0.153213 0.083438 0.025419 -0.096581 -0.188586 0.139113 0.153393 0.034132 0.010715 0.117423 -0.331368 -0.140494 0.136727 -0.320470 -0.210994 0.166943 -0.063832 -0.098541 -0.058746 0.136693 -0.053773 -0.063877 -0.180974 -0.109811 0.183202 0.143123 0.149584 0.202670 0.012162 -0.024379
there 0.081560 0.308153 -0.170367 0.388055 -0.005575 0.073268 -0.362845 0.149118 -0.158259 -0.006904 -0.224966 -0.019939 -0.311182 0.005131 0.270009 0.159475 -0.177394 -0.027875 0.370856 0.026496 -0.135752 0.173912 0.015968 -0.069749 -0.119378 0.024278 0.103336 0.017784 0.099683 0.024262 -0.429138 -0.117103 0.162882 -0.316313 -0.170165 0.189503 -0.069286 -0.113036 -0.099387 0.048472 -0.105337 0.008439 -0.126500 -0.007783 -0.042897 0.049826 0.132215 0.168363 0.168617 0.108078
from 0.161341 0.192271 -0.090517 0.265432 -0.033556 -0.001072 -0.261603 0.169254 -0.136091 -0.048372 -0.192399 0.031814 -0.102896 -0.024914 0.122231 0.137463 -0.044345 0.003950 0.160033 -0.005164 -0.095263 0.084561 -0.042746 -0.012644 -0.026150 -0.081523 0.012971 -0.021308 0.073858 -0.006387 -0.307413 -0.101847 0.073399 -0.141090 -0.086937 0.129233 0.049899 0.007777 -0.023914 0.073935 -0.019111 -0.047078 -0.003849 0.033682 -0.142874 0.030700 0.100331 0.103370 0.128819 0.027560
way 0.206741 0.461659 -0.188900 0.524097 -0.091179 0.071827 -0.454821 0.169517 -0.081866 0.032678 -0.357361 0.075549 -0.335419 0.076818 0.357320 0.175741 -0.204824 0.088441 0.435544 0.042100 -0.190292 0.248935 -0.000607 -0.058696 -0.156196 -0.030528 0.138078 0.037762 0.183562 0.034292 -0.568598 -0.210957 0.151133 -0.402648 -0.287684 0.239174 -0.027805 -0.078498 -0.132904 0.201805 -0.170354 -0.120384 -0.048963 -0.038622 -0.038338 -0.017721 0.181462 0.228443 0.190968 0.126448
like 0.069496 0.182094 -0.104883 0.170357 0.008458 0.010869 -0.161220 -0.053882 -0.047836 0.027700 -0.041610 0.111522 -0.101780 0.034366 0.162040 0.029658 -0.104508 0.051904 0.146422 0.075373 -0.060847 0.082703 0.002001 -0.039121 -0.047836 -0.037060 0.097694 0.059769 0.045566 -0.021695 -0.143103 0.006224 0.128070 -0.104046 -0.061944 0.071323 -0.030305 0.013852 -0.053884 0.073490 -0.104933 -0.047990 -0.023655 0.005976 0.046582 0.015476 0.057206 0.095471 0.090173 0.090593
* -0.109306 -0.785771 0.537139 -0.806004 0.043881 -0.354048 0.744746 -0.032881 0.210901 -0.120536 0.507048 -0.061217 0.758336 -0.304948 -0.762920 -0.224657 0.572112 -0.102257 -0.657013 -0.166398 0.079595 -0.490746 -0.080587 0.071513 0.233342 -0.014733 -0.198945 -0.007387 -0.097363 -0.231568 0.820447 0.380635 -0.433203 0.586689 0.586286 -0.491227 0.074807 0.046181 0.254826 -0.358328 0.377476 0.076746 0.073289 0.258808 -0.217624 -0.057514 -0.168678 -0.248233 -0.241088 -0.356310
do 0.098790 0.328214 -0.148309 0.398358 -0.188649 0.059392 -0.310367 0.069852 0.057550 0.115149 -0.205855 0.049471 -0.202075 0.110691 0.249699 0.085429 -0.150443 0.128465 0.361444 -0.033643 -0.074141 0.158427 -0.099479 -0.080019 -0.047221 -0.004346 0.165800 0.040327 0.080319 0.031893 -0.415728 -0.212250 0.018968 -0.348870 -0.248664 0.210616 0.002971 -0.076161 -0.074319 0.216072 -0.114129 -0.166087 0.016342 -0.045740 0.090552 -0.087022 0.088826 0.105995 0.070600 0.151043
I'm -0.037949 0.143324 -0.026126 0.133768 0.002396 0.059444 -0.149035 -0.075371 -0.115710 0.019284 0.024685 0.006145 -0.111551 -0.023717 0.093960 0.106900 -0.094816 -0.066135 0.120029 0.038932 -0.062591 0.069520 0.075122 -0.126521 -0.037567 0.016087 0.051495 -0.024282 0.031467 0.001286 -0.075529 0.062947 0.076366 -0.098400 0.003811 0.048037 -0.102298 -0.107271 -0.081017 -0.047782 -0.039780 0.085458 -0.072692 -0.023028 0.011199 0.139159 -0.046043 -0.000354 0.144226 0.009206
but 0.157476 0.398499 -0.183589 0.438464 -0.088731 0.019065 -0.528932 0.126777 -0.113781 0.048213 -0.234500 0.104720 -0.247598 0.053545 0.294864 0.167469 -0.164652 0.066439 0.407278 0.049367 -0.136163 0.159955 -0.060103 -0.098150 -0.054636 -0.004462 0.160698 0.049439 0.155610 -0.059192 -0.496042 -0.157213 0.183996 -0.337785 -0.227973 0.190871 -0.057471 -0.039968 -0.128950 0.174504 -0.088110 -0.071786 -0.048785 -0.008054 -0.010954 0.012498 0.129969 0.209042 0.232844 0.142008
has 0.061983 0.133611 -0.145720 0.128555 -0.003606 0.065755 -0.177574 -0.023204 -0.096189 0.020619 -0.053049 0.028348 -0.199753 0.038524 0.197229 0.056771 -0.105308 -0.014134 0.148734 0.042273 -0.117542 0.155577 0.044662 0.000245 -0.118164 0.076043 0.118527 0.032689 0.008308 0.027189 -0.137051 -0.008492 0.170376 -0.102893 -0.074933 0.038337 -0.054071 -0.023358 -0.037875 0.023564 0.000111 0.046318 -0.084329 -0.079360 0.096663 0.057054 -0.014805 0.026777 0.099884 -0.026629
into 0.092504 0.111168 -0.074050 0.178584 -0.006788 0.018192 -0.158993 0.078996 -0.086337 -0.043202 -0.121849 0.027895 -0.041597 0.002257 0.110181 0.105965 -0.036780 0.030375 0.115279 -0.002129 -0.032391 0.074313 -0.018144 -0.020181 -0.047791 -0.049466 0.015659 0.011257 0.054779 -0.016924 -0.166094 -0.048394 0.068796 -0.080907 -0.069888 0.064086 0.008516 -0.022966 -0.041133 0.018912 -0.040138 0.029400 0.017502 0.025241 -0.069617 0.001848 0.046081 0.051720 0.100173 0.017481
was 0.071586 0.319558 -0.168747 0.322696 -0.086271 0.037162 -0.244316 0.005220 0.110834 0.130662 -0.108051 0.097453 -0.231905 0.121855 0.230077 0.076500 -0.186934 0.142969 0.357136 0.049677 -0.070086 0.360060 0.048769 -0.102660 -0.067155 -0.045679 0.171760 0.033157 0.057476 0.050587 -0.329916 -0.081554 0.099593 -0.255267 -0.254738 0.199226 -0.156443 -0.082287 -0.150516 0.132356 -0.220503 -0.165027 0.018979 -0.102247 0.197081 -0.003768 0.022362 0.038483 0.103018 0.068932
code 0.054816 0.208042 -0.086518 0.183515 -0.046368 0.083207 -0.096570 0.043164 -0.020822 0.017432 -0.136677 0.017814 -0.197669 0.073139 0.159332 0.032170 -0.116348 0.025568 0.184481 0.009417 -0.087239 0.098480 -0.010553 -0.069164 -0.089196 -0.002035 0.095264 0.027960 0.039018 0.089953 -0.209035 -0.067760 0.081480 -0.171966 -0.123795 0.133974 -0.046695 -0.053722 -0.076930 0.071134 -0.114788 -0.042438 -0.048017 -0.048386 0.078623 -0.007870 0.100732 0.055098 0.053675 0.024307
memory -0.051566 -0.002413 -0.078943 -0.057308 0.024380 0.141747 0.141310 -0.024044 0.001309 0.052201 0.096701 -0.047416 -0.193176 0.047890 0.108441 -0.110076 -0.107572 -0.087986 0.014000 -0.004741 -0.022777 -0.005896 0.096070 -0.026659 -0.083752 0.063708 0.045836 0.029162 -0.054256 0.139242 0.064865 0.015176 0.106819 -0.018571 -0.028725 0.016890 -0.097480 -0.078987 -0.008358 0.009922 0.016172 0.064728 -0.071819 -0.120473 0.154543 0.082327 -0.037030 -0.058850 -0.111465 -0.105093
rel=nofollow 0.450222 0.095428 0.115179 0.311361 -0.178740 -0.118410 -0.598083 0.327951 -0.166373 -0.207775 -0.463963 0.084457 0.250134 -0.157531 -0.088269 0.285796 0.324147 0.081400 -0.010998 -0.010616 -0.045546 -0.314582 -0.428022 0.004703 0.215611 -0.132832 0.010421 -0.007149 0.292712 -0.285524 -0.459026 -0.226432 -0.240040 -0.106094 -0.067841 0.037841 0.421716 0.142337 0.054575 0.156681 0.026368 -0.121885 0.139854 0.253134 -0.614656 -0.164324 0.309866 0.343266 0.192138 0.305061
something 0.024681 0.218382 -0.124782 0.190285 -0.017105 0.053667 -0.124268 -0.024528 -0.014916 0.055386 -0.041717 0.068780 -0.173866 0.063971 0.174192 0.022976 -0.148100 0.023346 0.206111 0.048354 -0.080309 0.132137 0.033022 -0.053178 -0.086222 -0.020059 0.115729 0.045539 0.023199 0.037075 -0.141546 -0.017127 0.099314 -0.191672 -0.088768 0.104275 -0.075517 -0.058742 -0.057327 0.080289 -0.094266 -0.046687 -0.061721 -0.014465 0.108367 0.045326 0.048608 0.091660 0.069600 0.030861
by 0.049277 0.195570 -0.101647 0.186065 -0.042469 0.076322 -0.182800 0.077477 -0.083721 -0.003735 -0.126474 0.024462 -0.187466 0.037741 0.148604 0.093502 -0.145885 0.005870 0.148141 0.003743 -0.092631 0.183807 0.014294 -0.088252 -0.081887 0.002449 0.051278 0.037511 0.017062 0.020948 -0.218719 -0.062450 0.092554 -0.151556 -0.080876 0.132746 -0.107607 -0.055234 -0.100778 0.048202 -0.056486 0.002624 -0.060430 -0.041376 0.050321 0.065610 0.040127 0.037924 0.058133 -0.006003
so 0.022082 0.255593 -0.141395 0.231376 -0.040858 0.058259 -0.177947 0.010497 0.010382 0.054171 -0.035443 0.050097 -0.242736 0.068768 0.180878 0.087866 -0.198078 0.062953 0.261110 0.036136 -0.103109 0.177319 0.012158 -0.073401 -0.098030 0.058762 0.126067 0.031501 0.024611 0.041748 -0.218490 -0.025091 0.134016 -0.220013 -0.131247 0.148264 -0.099054 -0.045245 -0.101030 0.067073 -0.109170 -0.057031 -0.048296 -0.050897 0.171524 0.051139 0.017020 0.085991 0.089616 0.012970
The 0.041795 0.006901 -0.015102 0.043123 -0.006123 -0.020116 -0.104205 0.005573 -0.050698 -0.022594 -0.059394 -0.019884 -0.040187 -0.013321 0.007008 0.071414 -0.016899 -0.018281 0.050054 0.015716 -0.029547 0.042978 0.012389 -0.021520 0.036054 -0.006246 -0.011121 -0.024011 0.060870 -0.004279 -0.050104 -0.027266 0.048221 -0.016867 -0.013480 0.013224 -0.029255 0.002105 -0.045340 0.028897 -0.019526 0.012713 -0.000144 -0.004720 -0.032170 0.000750 0.012715 -0.023420 0.050223 0.039561
{ 0.152004 -0.491595 0.452704 -0.490624 0.029994 -0.284999 0.137900 0.104792 0.058233 -0.266573 0.021444 0.112584 0.816445 -0.254009 -0.686133 -0.037970 0.613138 -0.080517 -0.710950 -0.010464 0.057296 -0.592388 -0.405958 0.171588 0.338268 -0.067092 -0.219587 0.037752 0.046476 -0.395920 0.368059 0.049229 -0.483662 0.477452 0.335125 -0.398213 0.453550 0.314849 0.277565 -0.014509 0.227670 -0.083814 0.167448 0.312889 -0.616941 -0.172170 0.078741 0.187689 -0.066469 0.016465
// -0.096771 -0.471244 0.308516 -0.498963 -0.014348 -0.179237 0.519504 -0.029199 0.199356 -0.084705 0.287954 -0.037836 0.486597 -0.139130 -0.433908 -0.165885 0.355095 -0.044023 -0.426927 -0.097166 0.087391 -0.252744 -0.078158 0.071966 0.148805 -0.032066 -0.125419 0.002211 -0.064303 -0.129928 0.487405 0.213782 -0.291173 0.347906 0.341516 -0.291190 0.069949 0.051550 0.170019 -0.193453 0.229337 0.036171 0.077339 0.129963 -0.088925 -0.053251 -0.099261 -0.168779 -0.190608 -0.204046
at 0.111735 0.199284 -0.122919 0.279238 -0.022799 0.029733 -0.238661 0.069699 -0.070922 0.003014 -0.135291 0.054315 -0.186709 0.041598 0.157592 0.123307 -0.146183 0.035337 0.238594 0.008954 -0.083676 0.180286 0.007042 -0.048494 -0.078676 -0.028220 0.052914 0.048617 0.053012 0.023993 -0.283347 -0.047111 0.126387 -0.177458 -0.130801 0.126627 -0.067195 -0.071359 -0.082959 0.093077 -0.087650 -0.022165 -0.035001 -0.037029 0.050628 0.043809 0.053201 0.102583 0.117453 0.024036
how 0.064592 0.295228 -0.140791 0.311127 -0.107357 0.087280 -0.228299 0.062285 0.006661 0.062432 -0.155328 0.044941 -0.280185 0.102585 0.232185 0.087197 -0.192956 0.059823 0.294951 0.007197 -0.050923 0.174889 0.023162 -0.055668 -0.075339 -0.000547 0.101623 0.033603 0.078572 0.085818 -0.328923 -0.168906 0.112986 -0.266138 -0.221860 0.195020 -0.066877 -0.099849 -0.089686 0.119814 -0.108101 -0.077702 -0.021971 -0.081344 0.121027 -0.014219 0.056336 0.063218 0.084039 0.053441
If 0.060239 0.268796 -0.146333 0.272626 -0.052188 0.099470 -0.161694 0.160708 -0.037052 0.065468 -0.100831 0.019576 -0.303207 0.138797 0.215821 0.046208 -0.179613 -0.001910 0.223022 -0.057217 -0.105267 0.105722 -0.015209 -0.035713 -0.131971 0.083979 0.101378 0.028148 0.009206 0.102469 -0.276208 -0.140651 0.127252 -0.268882 -0.154044 0.166207 -0.019285 -0.069393 -0.009214 0.142416 0.025294 -0.050410 -0.156123 -0.076361 0.103953 0.110965 0.128200 0.176453 0.023886 -0.040835
It -0.015710 0.132053 -0.072259 0.153351 0.022097 -0.001119 -0.149980 -0.026070 -0.134225 0.019247 -0.031871 0.016271 -0.142097 -0.045257 0.108923 0.031925 -0.084724 -0.022801 0.146576 0.059219 -0.080771 0.009488 0.019360 -0.078411 -0.054908 -0.009439 0.050576 0.022389 0.079999 -0.039349 -0.120044 -0.005841 0.083677 -0.103421 -0.021968 0.080193 -0.086751 -0.031661 -0.045473 0.001213 -0.041615 0.025521 -0.060647 0.030347 -0.010863 0.090082 0.080705 0.073429 0.110267 0.044283
This 0.099454 0.159910 -0.090349 0.191795 -0.016613 0.014276 -0.239191 0.084292 -0.081637 -0.018820 -0.175314 0.053275 -0.140077 -0.008066 0.144002 0.094257 -0.063559 0.027574 0.142275 0.047968 -0.107276 0.059764 -0.067586 -0.005380 -0.031082 -0.001661 0.074381 0.037720 0.105319 -0.036616 -0.265224 -0.106692 0.054528 -0.151328 -0.111594 0.092806 0.040380 0.003505 -0.036351 0.080838 -0.060251 -0.023662 0.008927 0.015171 -0.039857 -0.007517 0.112407 0.117961 0.113021 0.074327
data 0.063057 0.009826 -0.047622 0.048171 0.026563 -0.010451 -0.130220 0.090076 -0.147000 -0.063152 -0.050777 -0.013317 -0.083945 -0.012557 -0.002623 0.110101 -0.035831 -0.009854 0.021658 -0.038251 -0.016920 0.054109 0.047107 -0.053714 -0.014725 0.013616 -0.045246 -0.043303 0.013760 -0.006381 -0.058149 -0.022177 0.074491 0.001502 0.018159 0.013749 -0.006819 -0.049706 -0.052710 -0.049678 -0.004287 0.074319 -0.019960 0.019302 -0.054689 0.078156 -0.016043 0.024067 0.066332 -0.020478
other -0.015872 0.006513 -0.040818 0.010994 0.040345 0.032888 -0.012219 -0.027316 -0.052729 -0.018270 0.004520 0.008916 -0.078442 0.010511 -0.002045 0.016367 -0.053337 -0.014504 0.038427 0.021975 -0.036480 0.071695 0.019754 0.010554 -0.038051 0.016530 -0.002683 0.027592 -0.018997 0.030924 -0.002938 0.016830 0.060694 -0.003787 0.002212 0.027781 -0.032500 -0.006097 0.008996 -0.001818 -0.024480 0.045739 -0.029941 -0.027720 0.035009 0.014480 -0.040617 -0.004251 0.011773 -0.040632
they -0.035397 0.148379 -0.091955 0.124580 -0.016410 0.073391 0.051780 0.067019 0.033507 0.061397 -0.008626 -0.000270 -0.140375 0.087710 0.139030 -0.013859 -0.141436 -0.002308 0.089613 -0.041868 -0.020264 0.123356 0.039161 0.009981 -0.115928 0.043100 0.029024 0.035812 -0.048268 0.127833 -0.101368 -0.025971 0.045332 -0.123302 -0.097179 0.100388 -0.046229 -0.054527 -0.018491 0.038629 -0.042657 -0.010178 -0.080261 -0.059283 0.128059 0.029987 0.022653 0.059981 -0.037746 -0.061331
what -0.002277 0.065908 -0.071696 0.058711 -0.027788 -0.027678 -0.059319 -0.065928 0.037387 0.054265 0.015668 0.032280 -0.033274 -0.005556 0.049704 0.034241 -0.061287 0.063080 0.124615 0.047846 0.003048 0.165733 0.032696 -0.058102 -0.005633 -0.010409 0.025764 -0.011491 -0.001713 0.013863 -0.063462 -0.025293 0.019487 -0.018760 -0.048490 0.063083 -0.088734 -0.017872 -0.069388 0.009694 -0.087710 -0.049399 0.036955 -0.030391 0.081988 -0.002688 -0.057926 -0.051379 0.040103 0.042689
- 0.091290 -0.274182 0.221679 -0.214723 -0.022225 -0.177855 0.053630 0.020495 0.028598 -0.088495 0.034764 0.002072 0.356799 -0.155261 -0.316741 -0.043845 0.311544 -0.011329 -0.280245 -0.024382 0.025502 -0.266950 -0.173618 0.098977 0.184815 -0.043470 -0.075920 -0.005715 0.029451 -0.191554 0.129241 0.034445 -0.233699 0.199722 0.178444 -0.207181 0.212886 0.130615 0.136529 -0.061218 0.095093 -0.034819 0.128764 0.137799 -0.275942 -0.106629 0.007039 -0.005689 -0.032298 0.024336
about -0.053658 -0.002504 -0.009714 -0.036706 -0.005245 0.025578 0.068552 -0.039743 0.038421 0.012281 0.023558 -0.015188 -0.017022 0.051539 0.018114 -0.053976 -0.042178 0.046053 0.015353 -0.012882 0.052461 0.048806 0.050815 -0.003711 -0.000302 0.013894 0.003483 -0.041474 -0.050728 0.076233 0.062928 0.014403 0.022607 0.034181 -0.027392 0.028520 -0.052581 -0.027970 -0.040402 -0.013248 -0.019321 0.019198 0.015069 -0.021857 0.070380 -0.015323 -0.049095 -0.073186 -0.055831 0.001324
file -0.014370 -0.001699 0.033752 -0.003901 -0.009057 -0.052990 0.052359 -0.055585 -0.026679 -0.016156 0.013297 -0.040368 0.042244 -0.005399 -0.005444 0.030638 0.037513 0.010598 0.002215 -0.045111 0.017343 0.028057 0.024421 -0.056449 0.017798 0.015824 -0.056806 -0.004962 -0.006437 0.046296 0.010557 0.044273 0.030428 0.014119 0.033486 -0.021429 -0.009187 0.000165 0.017843 -0.051165 -0.004475 0.021918 -0.002782 -0.026677 -0.039272 0.026386 -0.036641 -0.023978 0.028020 -0.008102
object -0.033876 0.087769 -0.086375 0.030121 0.085614 0.064129 0.056430 -0.031392 0.011521 0.054754 0.024581 -0.009943 -0.182452 0.011052 0.089998 -0.070020 -0.092125 -0.042402 0.061612 0.009218 -0.049411 0.118762 0.082014 -0.041129 -0.118577 -0.006904 0.025135 0.014620 -0.058218 0.071946 0.005472 -0.006146 0.129371 -0.039864 -0.021930 0.072125 -0.084020 -0.039700 -0.047836 0.007702 -0.079967 0.019007 -0.056722 -0.079982 0.120499 0.060339 0.006663 -0.067905 -0.025151 -0.060705
I've 0.018022 -0.038994 0.002318 -0.025493 0.005720 -0.023316 -0.034939 -0.027087 -0.083511 -0.029754 -0.000129 -0.040231 -0.009597 -0.013015 0.005048 0.058726 0.008113 0.008417 -0.048892 0.001717 -0.006682 0.050918 0.047206 0.013249 0.014079 0.030171 -0.000969 -0.025374 -0.015839 -0.008161 0.007694 0.032072 0.041428 0.058726 0.039068 -0.029771 -0.040233 -0.014923 -0.004676 -0.032921 0.012615 0.041168 -0.029315 0.012733 -0.016577 0.033380 -0.067975 -0.032522 0.044204 -0.004932
get 0.035274 0.270680 -0.133190 0.275699 -0.033656 0.048880 -0.194137 0.001695 0.011360 0.077547 -0.138294 0.035586 -0.223676 0.058102 0.210539 0.060881 -0.180096 0.044766 0.296601 0.057312 -0.119067 0.246615 0.060625 -0.109007 -0.136122 -0.015922 0.087062 0.043131 0.081494 0.018243 -0.281365 -0.095078 0.107912 -0.252615 -0.152636 0.138911 -0.147595 -0.087618 -0.125396 0.102268 -0.139423 -0.087371 -0.029468 -0.075444 0.092998 0.011109 0.044581 0.035562 0.092053 0.047393
more -0.055865 -0.157345 0.043624 -0.117635 -0.008302 0.002971 0.124326 -0.004924 0.050617 0.044439 0.063317 -0.008097 0.111999 -0.024493 -0.024376 -0.073280 0.059277 -0.041846 -0.075251 -0.005203 0.131837 -0.001765 0.081957 0.117020 0.089196 -0.034930 -0.045226 -0.010065 -0.034495 0.018521 0.161219 0.115121 -0.008896 0.154953 0.040760 -0.078960 0.031976 0.042274 -0.008910 -0.084931 0.009628 0.036921 0.065048 0.041482 0.059439 -0.020206 -0.111020 -0.119293 -0.035191 -0.001682
need 0.081639 0.324453 -0.162179 0.316348 -0.072594 0.058628 -0.246166 0.034784 0.042457 0.094003 -0.165305 0.080106 -0.227663 0.121055 0.236354 0.075494 -0.220331 0.073912 0.325777 0.037095 -0.109246 0.296579 0.025403 -0.075309 -0.102402 -0.048791 0.120565 0.066560 0.083668 0.044750 -0.351803 -0.136004 0.104189 -0.296595 -0.236090 0.191560 -0.133297 -0.068662 -0.115169 0.155188 -0.166309 -0.140317 0.018546 -0.097480 0.163164 -0.018141 0.073681 0.072288 0.106586 0.046519
table 0.076172 0.121907 -0.082709 0.155819 -0.009045 0.065618 -0.188274 0.037463 -0.106184 -0.023095 -0.092584 0.015149 -0.133663 0.023794 0.115304 0.093451 -0.088153 0.007657 0.121411 0.011419 -0.043721 0.152824 0.057788 -0.071126 -0.058821 -0.017270 0.000190 0.036797 0.009548 0.013860 -0.151416 -0.010196 0.118414 -0.069489 -0.046687 0.062525 -0.041260 -0.046311 -0.075600 0.011163 -0.048814 0.028533 -0.048069 -0.052623 0.005965 0.050220 0.000825 0.025568 0.079807 0.026099
want 0.065167 0.345339 -0.141427 0.334476 -0.130013 0.109334 -0.175018 0.057070 0.156997 0.145295 -0.183406 0.059734 -0.252464 0.173987 0.273506 0.015312 -0.185863 0.122834 0.310889 0.002999 -0.080755 0.259477 -0.002054 -0.050114 -0.148821 -0.030453 0.127887 0.049578 0.085863 0.097288 -0.351998 -0.169672 0.077370 -0.318219 -0.250163 0.237422 -0.085903 -0.076794 -0.094581 0.191711 -0.163371 -0.187917 0.021412 -0.105117 0.198556 -0.065615 0.085761 0.092722 0.041893 0.053077
which 0.005737 0.141468 -0.101581 0.139409 0.000776 0.019598 -0.125385 -0.012520 -0.039454 0.034700 -0.062656 0.003955 -0.138093 -0.022078 0.098475 0.055243 -0.100180 0.007038 0.158394 0.041493 -0.060240 0.105449 0.043065 -0.078999 -0.062397 -0.008378 0.045617 -0.005620 0.070266 -0.007270 -0.144506 -0.053980 0.079355 -0.106931 -0.086827 0.051490 -0.092042 -0.068874 -0.083984 0.021085 -0.084206 -0.012706 -0.013797 -0.020509 0.043404 0.033477 0.029432 0.005921 0.068661 0.036824
&amp;lt; -0.136909 -0.732982 0.483556 -0.758865 0.009393 -0.294740 0.674818 -0.069196 0.214358 -0.151194 0.388023 -0.039102 0.756984 -0.251750 -0.681679 -0.210251 0.558768 -0.096238 -0.689412 -0.097184 0.175570 -0.463514 -0.162392 0.122851 0.278241 -0.050127 -0.224542 -0.020566 -0.087591 -0.239055 0.710319 0.298781 -0.438240 0.562849 0.509595 -0.459658 0.165664 0.137733 0.249441 -0.277444 0.323869 0.058652 0.117714 0.223682 -0.230676 -0.103621 -0.135329 -0.205911 -0.241959 -0.195863
all 0.169079 0.131006 -0.007601 0.187696 -0.075634 -0.045543 -0.242846 0.181030 -0.060500 -0.055093 -0.141384 0.069115 -0.076252 -0.057131 -0.008272 0.153987 0.013746 -0.008193 0.118103 0.001066 -0.109643 0.037562 -0.113575 -0.056861 0.056397 -0.020132 0.020826 0.036069 0.121975 -0.081689 -0.267967 -0.098181 0.008416 -0.113118 -0.090385 0.072269 0.030235 -0.034852 -0.027209 0.093911 0.008249 -0.084876 -0.005404 0.014087 -0.104181 0.036827 0.101246 0.153866 0.137247 -0.005660
does -0.050867 0.032478 -0.052880 0.039440 0.049428 0.021723 -0.035332 -0.035707 -0.054447 0.010776 0.057221 -0.010868 -0.096756 0.024167 0.057621 0.015708 -0.063318 -0.037331 0.061364 -0.001708 -0.040811 0.010250 0.076937 -0.045683 -0.061426 0.053197 0.044290 -0.025559 -0.023819 0.017141 0.026826 0.056022 0.114182 -0.021939 -0.010925 -0.038069 -0.087832 -0.055710 -0.032498 -0.015057 0.012500 0.038851 -0.063670 -0.037532 0.066879 0.099040 -0.029952 0.001771 0.018375 -0.003976
know 0.032758 0.259177 -0.124570 0.277476 -0.082918 0.032224 -0.253950 0.050277 0.014718 0.067768 -0.127028 0.041101 -0.219787 0.039390 0.185566 0.129875 -0.169580 0.042984 0.296191 0.011521 -0.080267 0.262141 0.030202 -0.127202 -0.036147 -0.009936 0.074772 -0.008220 0.091066 0.053401 -0.270646 -0.100337 0.106807 -0.228220 -0.190494 0.187533 -0.151244 -0.089271 -0.135779 0.066120 -0.131687 -0.095856 -0.014214 -0.084658 0.148692 0.027052 0.041082 0.026527 0.122755 0.031579
new 0.184356 -0.394560 0.332578 -0.336179 -0.003420 -0.186087 0.033730 0.044106 0.034718 -0.201393 -0.071357 0.064387 0.647154 -0.209869 -0.465385 -0.031446 0.522349 0.000363 -0.580635 0.029287 0.123988 -0.599893 -0.379510 0.173229 0.309287 -0.096012 -0.126956 -0.071018 0.069627 -0.311387 0.276482 -0.036721 -0.450625 0.373262 0.235733 -0.334186 0.510478 0.305361 0.253208 -0.042748 0.106826 -0.040009 0.247764 0.296756 -0.595429 -0.242654 0.140534 0.115626 -0.079854 0.208728
one -0.034480 -0.138263 0.015800 -0.136983 0.068655 -0.019904 0.083881 -0.028171 -0.050713 -0.054101 0.047921 -0.065704 0.102423 -0.086618 -0.086226 -0.019248 0.049048 -0.018304 -0.118043 0.015402 0.031404 -0.053940 0.018240 0.031436 0.063967 -0.029804 -0.072846 -0.048970 -0.026870 -0.023280 0.138941 0.030148 -0.032404 0.153706 0.089425 -0.078668 0.010894 0.043513 0.007380 -0.055995 0.038492 0.020054 0.029290 0.031505 -0.046988 -0.008490 -0.044532 -0.069829 -0.021287 0.007404
only 0.000464 0.147000 -0.085972 0.143309 0.027623 0.014232 -0.115730 -0.001375 -0.091112 0.038111 -0.009994 0.001925 -0.166145 0.000495 0.113734 0.015219 -0.120614 -0.004316 0.119379 0.039343 -0.074363 0.043667 0.021118 -0.021932 -0.076629 0.029016 0.086316 0.022326 -0.011439 0.014921 -0.112600 -0.006638 0.101430 -0.100542 -0.050055 0.080604 -0.065372 -0.027823 -0.006922 0.063314 -0.007710 0.003584 -0.076419 -0.008183 0.052758 0.087671 0.059579 0.096711 0.063653 0.005491
query 0.066192 -0.126444 0.049041 -0.080673 0.027079 -0.040576 -0.013506 0.009214 -0.027043 -0.066917 -0.015326 -0.007227 0.125675 -0.034574 -0.106661 0.041736 0.097479 0.006597 -0.115930 0.006758 0.046746 -0.077779 -0.048996 -0.002149 0.039747 -0.031666 -0.052097 -0.011872 -0.037032 -0.065756 0.094438 0.047394 -0.029322 0.112877 0.055580 -0.101543 0.068636 0.060089 0.029174 -0.055149 0.040844 0.046863 0.060708 0.009293 -0.112153 -0.029983 -0.030178 -0.020409 0.013172 0.000397
since 0.006712 0.170772 -0.092269 0.176699 -0.077037 0.070325 -0.175036 -0.035287 0.038011 0.060881 -0.117352 0.046260 -0.072315 0.082572 0.128348 0.092854 -0.096264 0.073282 0.229925 0.005998 -0.015143 0.180081 0.050138 -0.085414 -0.019495 -0.050861 0.037049 -0.039162 0.053236 0.030777 -0.123594 -0.082476 0.005720 -0.129652 -0.121764 0.121139 -0.094325 -0.038849 -0.141400 0.061720 -0.133872 -0.079413 0.065190 -0.057457 0.112869 -0.005702 -0.009941 -0.051104 0.063444 0.064862
then 0.079190 0.174778 -0.085123 0.173812 0.009394 -0.001105 -0.221186 0.079623 -0.087824 0.002344 -0.074929 0.053365 -0.131177 0.015831 0.104524 0.069696 -0.076213 -0.017229 0.154066 0.010889 -0.103870 0.075650 -0.021270 -0.053775 -0.050208 -0.000000 0.060275 0.050202 0.025557 -0.020718 -0.214162 -0.072761 0.113587 -0.130666 -0.067372 0.089423 -0.025589 -0.017327 -0.038019 0.084335 -0.007840 -0.013349 -0.070720 -0.018944 -0.008401 0.036849 0.051467 0.101515 0.103327 0.002573
used 0.059327 0.126275 -0.067115 0.120676 0.004534 0.010644 -0.121626 0.016028 -0.055128 0.011802 -0.079544 0.004663 -0.134186 0.022125 0.088700 0.067727 -0.096319 0.020166 0.109978 0.013333 -0.092403 0.149677 0.024894 -0.070236 -0.055767 -0.000587 0.052938 0.022115 0.054282 -0.005221 -0.163814 -0.066160 0.064196 -0.108434 -0.060837 0.063511 -0.090148 -0.029896 -0.052148 0.035501 -0.082434 -0.029454 -0.030739 -0.027804 0.033168 0.018330 0.030515 0.036642 0.068858 0.009599
+ -0.202357 -0.436973 0.230648 -0.520276 0.145924 -0.129232 0.461122 -0.135919 0.081513 -0.034618 0.325335 -0.117486 0.364325 -0.097719 -0.332283 -0.209889 0.213684 -0.070087 -0.426186 -0.042268 0.210241 -0.270372 0.040015 0.144390 0.140719 0.017666 -0.165221 -0.078510 -0.163821 -0.023841 0.522528 0.179361 -0.165479 0.379468 0.280010 -0.277853 0.057525 0.112143 0.159220 -0.228780 0.194548 0.054215 0.015795 0.043438 -0.071562 -0.042227 -0.186247 -0.188976 -0.194767 -0.107088
any -0.044867 0.040743 -0.037941 -0.004623 0.008307 0.035344 0.000627 -0.016754 -0.006218 -0.006679 0.017549 -0.040492 -0.057877 -0.003268 0.033987 0.000818 -0.041978 0.002755 0.051824 -0.001555 0.011645 0.043311 0.055084 0.017562 -0.007290 0.042100 0.015859 -0.012045 -0.025117 0.057234 0.006689 0.009706 0.057090 0.004227 -0.025563 0.025767 -0.031358 -0.028853 -0.025178 -0.009523 -0.022843 0.040948 -0.009164 -0.027458 0.061465 0.004586 -0.038056 -0.039598 -0.026856 -0.005318
application 0.012070 0.015524 -0.044479 0.009231 -0.006536 0.066538 -0.010621 0.029711 -0.063953 0.008548 -0.024562 -0.027442 -0.100101 0.004664 0.053939 -0.013152 -0.025128 -0.047929 0.028419 0.017196 -0.026063 -0.044239 0.037309 -0.013816 -0.022604 0.004539 0.022632 0.007627 0.011861 0.045869 -0.027803 -0.021932 0.053468 -0.032844 -0.011582 0.053219 -0.018621 -0.035790 -0.010410 0.008307 -0.006435 0.034759 -0.024193 -0.036334 0.014338 0.013769 0.016576 -0.018524 -0.013386 -0.003311
been -0.030639 -0.121416 -0.001098 -0.145077 0.022106 0.001097 0.050794 -0.112826 -0.038714 -0.004785 0.074143 -0.027848 0.038668 -0.002287 0.011185 -0.024090 0.045990 -0.023456 -0.093460 0.015318 0.018266 0.013561 0.075404 0.066938 -0.013496 0.062397 0.000624 -0.018751 -0.065461 0.006678 0.156235 0.080378 0.040162 0.131290 0.080715 -0.096955 -0.003531 0.027919 0.022776 -0.081730 0.065060 0.084445 -0.023489 -0.021546 0.039011 -0.007056 -0.120685 -0.114613 -0.007094 -0.049730
could -0.084310 0.076758 -0.064187 0.025162 -0.026903 0.105409 0.145687 0.035577 0.131785 0.110603 0.062279 -0.038892 -0.167714 0.135892 0.130241 -0.109027 -0.159712 0.024212 0.033510 -0.075945 0.021908 0.051597 0.085430 0.055371 -0.111298 0.054376 0.062347 -0.026547 -0.080219 0.164540 0.007911 -0.047174 0.057362 -0.103546 -0.092992 0.108850 -0.050943 -0.081067 0.016195 0.029360 0.001179 -0.030772 -0.079853 -0.073770 0.185323 0.024521 -0.009582 0.011871 -0.104646 -0.103407
just 0.001911 0.085636 -0.053514 0.080291 -0.026898 0.061422 0.006629 0.088787 0.029337 0.009813 -0.052699 -0.016596 -0.072749 0.089870 0.094123 0.006893 -0.082091 0.046573 0.045861 -0.051401 0.032963 0.014852 0.010145 0.020849 -0.023524 0.036984 0.008011 -0.015992 -0.032079 0.082617 -0.071888 -0.075822 0.020663 -0.061528 -0.080807 0.085760 0.020717 -0.015741 0.013689 0.023018 0.010197 -0.003606 -0.036357 -0.013056 0.038235 -0.011998 0.035438 0.066838 -0.045143 -0.000002
method 0.070644 0.188977 -0.098202 0.197808 0.010941 0.055940 -0.188073 0.048110 -0.090938 0.023997 -0.109326 0.018461 -0.208043 -0.002446 0.126605 0.078334 -0.143393 -0.008622 0.184898 0.027569 -0.124162 0.162148 0.035804 -0.075514 -0.096021 -0.022355 0.046562 0.024547 0.043568 0.014344 -0.208193 -0.061807 0.133197 -0.151869 -0.078670 0.136232 -0.089501 -0.041577 -0.065948 0.060673 -0.071234 -0.004567 -0.052673 -0.035160 0.046662 0.052754 0.059394 0.054908 0.104636 -0.011703
out -0.056209 0.017428 -0.054757 0.015470 0.009990 0.030028 0.017684 0.011389 -0.048260 -0.000243 0.007815 -0.029687 -0.074563 0.014211 0.035360 0.018663 -0.061482 -0.016613 0.067341 -0.023346 0.029256 0.088723 0.037367 0.007684 -0.016106 0.033791 -0.013281 -0.003724 -0.026871 0.067030 -0.030058 0.000434 0.040551 -0.010223 -0.014975 0.031840 -0.039671 -0.047266 -0.014659 -0.044753 -0.009095 0.034729 -0.026912 -0.031979 0.047675 0.030757 -0.028884 -0.014732 -0.008101 0.008773
see -0.063725 0.078930 -0.042974 0.008406 -0.004917 0.047592 0.107178 -0.018202 0.043942 0.058672 0.042084 0.003677 -0.138785 0.072297 0.061002 -0.057510 -0.088812 -0.040325 0.047972 0.013831 -0.016616 0.085780 0.077282 0.026432 -0.075701 0.013366 0.037982 0.054866 -0.012558 0.090270 -0.028662 -0.019148 0.088085 -0.061779 -0.057245 0.067194 -0.087021 -0.056767 0.017988 0.007179 -0.045082 -0.025064 -0.049814 -0.102938 0.158609 0.023652 0.005526 -0.035565 -0.065987 -0.075188
version 0.049486 0.095335 -0.067401 0.117518 0.019151 0.012889 -0.155726 0.055966 -0.119045 -0.022260 -0.020234 -0.000571 -0.175641 -0.005454 0.035793 0.122372 -0.110153 -0.045414 0.101403 0.007220 -0.081904 0.132409 0.038363 -0.081407 -0.004092 0.027287 -0.004529 0.017657 0.038219 0.020604 -0.132755 -0.010620 0.125361 -0.072144 -0.032092 0.034387 -0.085184 -0.066918 -0.041642 -0.008569 -0.008252 0.046900 -0.074352 -0.060084 0.013685 0.093202 0.001380 0.032320 0.102471 -0.028484
work 0.025049 0.119670 -0.047200 0.122143 0.007078 0.027528 -0.130707 -0.008213 -0.063405 0.036555 -0.021565 0.023992 -0.148308 0.002205 0.104261 0.063102 -0.089577 -0.001687 0.119305 0.026715 -0.081329 0.098844 0.026432 -0.074056 -0.045798 -0.013311 0.049793 0.029063 0.023406 0.012633 -0.127882 -0.003005 0.105423 -0.095039 -0.044975 0.045400 -0.084700 -0.040712 -0.057154 0.017212 -0.048051 0.004712 -0.053231 -0.058842 0.039466 0.057809 0.019611 0.025954 0.106341 0.011278
/ 0.074691 -0.346857 0.215124 -0.287387 0.038442 -0.167134 0.076725 -0.002788 -0.016397 -0.159341 -0.004162 -0.022651 0.434475 -0.179279 -0.344227 -0.023086 0.365350 -0.022396 -0.386521 0.007930 0.093106 -0.391338 -0.214766 0.125184 0.229749 -0.090758 -0.126542 -0.026178 0.023626 -0.219031 0.238147 0.018206 -0.290526 0.313273 0.224293 -0.241022 0.287668 0.209769 0.168281 -0.053603 0.095501 -0.001878 0.171631 0.193588 -0.353365 -0.115552 0.056100 0.024223 -0.050388 0.113122
first 0.119695 0.098384 -0.047873 0.153857 -0.015822 -0.012551 -0.203749 0.087661 -0.116705 -0.054595 -0.084405 0.045197 -0.095909 -0.015869 0.006303 0.104721 -0.020017 -0.007795 0.092290 0.001840 -0.085169 0.093010 -0.045988 -0.053651 0.006878 -0.042285 0.032680 0.020563 0.044472 -0.056190 -0.184943 -0.022085 0.039390 -0.072593 -0.064326 0.035134 0.000466 0.004857 -0.023752 0.049202 -0.019773 -0.005310 -0.025878 -0.020532 -0.069519 0.054389 0.060974 0.120129 0.135475 0.006346
function 0.028230 -0.439284 0.335215 -0.478653 0.102204 -0.209383 0.219494 -0.026246 0.062197 -0.161663 0.131266 0.043248 0.628687 -0.165020 -0.517791 -0.095880 0.417645 -0.073061 -0.581768 0.035058 0.104929 -0.449030 -0.235338 0.152919 0.204055 -0.028304 -0.202585 0.001140 -0.025143 -0.260756 0.450298 0.077912 -0.328978 0.455123 0.267634 -0.369835 0.306656 0.253992 0.186471 -0.065421 0.138209 -0.007908 0.136538 0.225741 -0.417696 -0.157467 -0.019887 0.035269 -0.134046 0.006713
some 0.019599 0.137683 -0.047616 0.138827 -0.036727 0.054736 -0.067191 0.016697 -0.035270 0.031108 -0.051994 -0.020270 -0.142647 0.032369 0.105239 0.003357 -0.092102 0.011295 0.134683 -0.008604 -0.034872 0.089829 0.007185 -0.038038 -0.063026 0.012001 0.048083 0.014300 0.011323 0.096736 -0.141867 -0.022790 0.051875 -0.099249 -0.089692 0.096163 -0.049402 -0.077800 -0.057674 0.034727 -0.046098 -0.013207 -0.050903 -0.039641 0.070900 0.006962 0.049368 0.048835 0.022801 0.004407
up 0.002626 -0.020177 -0.029128 -0.014097 0.026628 0.023564 0.070383 -0.025329 0.019316 0.022929 0.046971 -0.005790 -0.002987 -0.026665 0.010529 -0.020550 -0.027006 0.003024 -0.033777 0.013478 0.009381 0.052580 0.009116 0.016227 -0.047415 -0.019848 0.001236 0.020288 -0.055845 0.027095 0.051844 0.037971 0.001507 0.034300 0.018039 0.012732 -0.045816 -0.010958 -0.023371 -0.016675 -0.040458 0.030541 -0.002967 -0.000153 0.032367 0.007264 -0.006641 -0.008745 -0.018317 -0.029533
Is 0.006906 0.033751 -0.029747 0.050539 0.015397 0.023450 -0.059196 0.036286 -0.067826 -0.023606 -0.018053 -0.015621 -0.086565 0.033316 0.072182 0.022182 -0.044014 -0.006661 0.065657 -0.008928 -0.025642 0.064261 0.030531 -0.037589 -0.053575 0.035713 0.004202 0.017830 -0.016434 0.029836 -0.051202 0.011694 0.079868 -0.036278 -0.022853 0.011434 -0.015786 -0.026813 -0.021356 -0.020416 0.011518 0.047463 -0.054040 -0.029734 0.009012 0.018208 0.003173 0.017660 0.020850 -0.001060
because 0.012897 0.134936 -0.100268 0.130863 0.031641 0.011550 -0.139262 0.019892 -0.091612 -0.000330 -0.036413 0.011494 -0.169842 -0.021511 0.085320 0.078929 -0.099368 -0.008864 0.096748 0.028470 -0.056335 0.129937 0.039248 -0.073304 -0.064401 0.024480 0.034263 -0.000558 -0.014041 -0.011279 -0.125308 -0.012159 0.141694 -0.074523 -0.048539 0.059908 -0.092945 -0.038452 -0.063546 0.017348 -0.055733 0.013851 -0.058331 -0.038222 0.059848 0.081947 0.004804 0.033297 0.084314 0.000011
database 0.079356 0.041261 -0.037720 0.087473 -0.022364 -0.013418 -0.117843 0.039102 -0.112150 -0.051112 -0.048411 -0.007321 -0.032908 -0.028892 0.012802 0.104860 0.027463 -0.005339 0.071780 -0.001253 -0.045817 0.047708 -0.006243 -0.039945 0.018275 0.003430 -0.009698 -0.020369 0.053450 0.003779 -0.105227 -0.013006 0.030828 -0.048601 -0.016516 0.002915 0.004203 -0.006112 -0.017844 0.026103 0.004561 0.043680 -0.016614 -0.012242 -0.055033 0.019599 0.015184 0.034841 0.082738 0.026579
don't 0.009466 0.189166 -0.083658 0.160593 -0.092069 0.059724 -0.106549 -0.037580 0.123560 0.093225 -0.082698 0.042168 -0.113100 0.097424 0.131050 0.032421 -0.135317 0.091321 0.226988 -0.000189 -0.027594 0.221107 0.015650 -0.085042 -0.051736 -0.031475 0.052875 -0.004134 0.049228 0.079629 -0.155377 -0.066386 0.021243 -0.154847 -0.143051 0.156713 -0.118492 -0.051141 -0.127103 0.068633 -0.139128 -0.121832 0.057866 -0.090816 0.197124 -0.029370 -0.017958 -0.035390 0.044952 0.031557
go -0.073108 -0.051125 -0.019983 -0.067976 0.066645 0.001102 0.076120 -0.041183 -0.026364 -0.009245 0.081137 -0.029176 -0.025804 0.034682 0.002457 -0.026199 -0.037715 -0.028473 -0.032479 -0.029333 -0.008313 0.031154 0.061304 0.000486 -0.044732 0.038874 -0.011150 -0.036389 -0.078026 0.043515 0.092307 0.060592 0.042321 0.050563 0.033265 -0.059845 -0.062752 -0.019154 0.004890 -0.047381 0.035504 0.028250 -0.039916 -0.039646 0.065633 0.050827 -0.071456 -0.055041 -0.046049 -0.039732
good 0.030362 0.057103 -0.011128 0.075552 -0.032876 0.038163 -0.046113 0.030679 -0.011994 0.004659 -0.085150 -0.024305 -0.003263 0.015048 0.082806 0.002867 0.011870 0.017887 0.060601 -0.006193 0.031825 -0.047265 0.016086 0.028071 -0.013941 -0.002975 -0.010209 -0.025138 0.034339 0.026013 -0.068713 -0.051527 -0.010291 -0.028304 -0.040553 0.018102 0.048068 -0.023569 -0.008245 0.047409 0.017064 -0.029941 0.005448 0.011270 -0.079718 -0.040599 0.013906 0.010624 -0.001871 0.034608
tried 0.121674 0.183858 -0.066598 0.222881 -0.052679 0.027957 -0.217378 0.088515 -0.027423 0.018578 -0.145188 0.040420 -0.112171 0.034532 0.120226 0.105309 -0.076071 0.042555 0.169935 0.011057 -0.074128 0.151400 -0.021226 -0.030524 -0.009020 -0.039524 0.053507 0.034721 0.087691 -0.026675 -0.272002 -0.098381 0.044080 -0.147383 -0.110007 0.132231 -0.036370 -0.038987 -0.075622 0.096120 -0.062065 -0.091508 0.014902 -0.010730 -0.004731 -0.007113 0.035299 0.087985 0.113693 0.044002
-o -0.365496 -0.781802 0.274009 -0.855855 0.168372 -0.051738 0.841952 -0.462408 0.332357 0.015104 0.446841 -0.074133 0.497919 0.039054 -0.399853 -0.438358 0.370079 -0.022113 -0.566166 0.021394 0.308103 -0.317625 0.093749 0.126157 0.083604 0.002111 -0.245901 -0.054481 -0.207740 0.008826 0.979767 0.218982 -0.322442 0.512263 0.412269 -0.448652 0.099525 0.287074 0.183525 -0.261088 0.072068 0.267023 0.211162 -0.022044 0.122657 -0.173008 -0.238554 -0.416177 -0.542410 -0.068625
am 0.008576 0.162714 -0.082563 0.173804 -0.091490 0.044963 -0.118976 -0.022767 0.097757 0.070566 -0.064457 0.061307 -0.079804 0.082248 0.138391 0.045737 -0.133096 0.111660 0.207194 0.002053 -0.002163 0.184276 -0.002528 -0.101995 -0.010023 -0.027623 0.062959 -0.004922 0.030888 0.032686 -0.153143 -0.057282 -0.002082 -0.160125 -0.157225 0.148045 -0.116857 -0.084285 -0.138680 0.059076 -0.132804 -0.116843 0.067378 -0.049999 0.162984 -0.019926 -0.016457 -0.030652 0.055688 0.056149
being -0.071275 -0.061612 -0.015267 -0.091926 0.053596 -0.013022 0.068401 -0.064374 -0.022712 0.025394 0.067814 -0.012675 -0.012478 -0.049313 -0.055428 -0.045222 -0.028587 -0.025941 -0.060350 0.026045 -0.005797 0.017463 0.017729 -0.030706 -0.029300 0.008607 -0.008338 0.000430 -0.014800 -0.017878 0.121175 0.074493 0.014298 0.013217 0.057050 -0.023271 -0.062366 -0.000175 -0.013988 -0.035259 0.012498 0.050096 -0.041895 -0.020532 0.022370 0.043531 -0.005073 -0.051221 -0.035475 -0.033113
button -0.072647 -0.182555 0.064994 -0.232137 0.081453 -0.022961 0.207008 -0.082738 -0.018633 -0.023074 0.152875 -0.035356 0.097182 -0.054110 -0.149141 -0.087961 0.055148 -0.060592 -0.186183 -0.011555 0.044352 -0.080942 0.041272 0.031134 0.020372 -0.018918 -0.087707 -0.011175 -0.090006 -0.003745 0.239803 0.093916 -0.027555 0.168590 0.150963 -0.108722 -0.018262 0.031980 0.045840 -0.094845 0.053579 0.074225 -0.007444 0.001767 -0.009830 0.019488 -0.058373 -0.088771 -0.071112 -0.061287
it's -0.083032 -0.101347 0.042327 -0.120024 0.011488 0.012835 0.085508 -0.071701 0.037928 0.024729 0.037255 -0.016421 0.118894 0.014525 -0.045227 -0.048507 0.066323 -0.007163 -0.046307 -0.016776 0.090290 -0.033513 0.081929 0.040427 0.023132 -0.019329 -0.043429 -0.042493 -0.034969 0.001665 0.179765 0.045132 -0.049974 0.102029 0.052058 -0.064545 -0.005219 0.027987 -0.003801 -0.041036 0.021303 0.014974 0.034046 -0.000716 0.001044 -0.032709 -0.084615 -0.147181 -0.074840 0.000763
little 0.049129 0.004060 0.000105 0.071606 -0.070701 0.016227 -0.152466 0.050906 -0.042425 -0.009433 -0.084311 0.010543 0.040545 -0.001634 0.053668 0.054743 0.063563 0.015601 0.069556 -0.008332 0.065217 -0.058482 0.005413 0.025479 0.082664 -0.008474 0.008401 -0.024080 0.056537 -0.018031 -0.030196 -0.002445 0.019106 0.016400 -0.031055 0.002628 0.060403 -0.000592 -0.052799 -0.000416 0.006462 0.008156 0.046752 0.071996 -0.063539 -0.026359 -0.014637 -0.016063 0.050227 0.084611
main -0.001243 -0.069913 0.005354 -0.035140 0.076392 -0.042362 0.013224 -0.027879 -0.093253 -0.053237 0.037683 0.012041 0.013129 -0.032808 -0.092254 0.040529 -0.023845 -0.046831 -0.024704 0.011681 -0.016192 0.017090 0.013204 -0.031220 0.011667 -0.007506 -0.040739 0.014384 -0.018661 -0.038132 0.003600 0.029825 0.028096 0.076452 0.078022 0.007436 0.000676 0.037811 -0.006240 -0.029492 0.021107 0.020893 -0.023361 0.000472 -0.012100 0.049348 -0.037254 -0.006408 0.030240 -0.025896
may -0.104399 0.020071 -0.016977 -0.035327 -0.012270 0.064888 0.184262 -0.031497 0.089579 0.087200 0.073848 -0.047949 -0.067423 0.072385 0.062718 -0.115228 -0.049631 0.010714 -0.022791 -0.039339 0.026506 0.018004 0.076719 0.056397 -0.066825 0.033994 0.006757 -0.007054 -0.054434 0.114822 0.090357 0.004812 0.020274 -0.001382 -0.008888 0.023362 -0.041116 -0.057323 0.000375 0.005294 0.039906 0.021324 -0.016769 -0.037734 0.137551 0.017276 -0.024906 -0.043576 -0.110150 -0.059731
property -0.014221 -0.089912 0.048032 -0.078863 0.048054 -0.057662 0.043346 0.004331 -0.030367 -0.028160 0.035632 -0.007889 0.057827 -0.062771 -0.099410 -0.018045 0.047887 -0.045276 -0.117576 -0.011451 0.000237 -0.084418 -0.060686 0.037081 0.021901 -0.015166 -0.042990 0.012725 -0.031442 -0.049780 0.076121 0.006792 -0.050250 0.052261 0.076404 -0.023036 0.050777 0.053033 0.080723 -0.019209 0.073627 0.042092 -0.031921 0.050565 -0.073665 0.008532 0.052218 0.045596 -0.033718 -0.018225
timer -0.017911 -0.112298 0.014995 -0.095734 0.053766 -0.034777 0.042278 -0.017866 -0.086408 -0.070842 0.053769 -0.019523 0.052715 -0.056137 -0.095462 0.024728 0.036612 -0.034397 -0.053955 -0.003578 0.015383 -0.042915 0.016357 -0.027789 0.032887 0.015203 -0.041887 -0.029385 -0.031547 -0.023270 0.080885 0.046839 -0.003283 0.092278 0.091610 -0.029404 -0.007142 0.029824 0.007959 -0.061054 0.012699 0.049667 -0.019253 0.021947 -0.026826 0.033288 -0.048445 -0.034206 0.013912 -0.023764
times -0.032363 -0.193054 0.075626 -0.164545 -0.011390 -0.006215 0.148113 -0.034399 -0.002699 -0.038288 0.125470 -0.053785 0.021790 -0.082534 -0.143606 -0.083068 0.028940 -0.064653 -0.212803 0.013235 0.035770 -0.174294 -0.004071 -0.041973 0.045100 0.065086 -0.128409 0.031758 -0.041153 -0.022387 0.115134 0.049687 -0.062390 0.156046 0.063482 -0.077384 0.088612 0.012569 0.102524 -0.048832 0.010831 0.005120 -0.016017 0.007870 -0.025314 0.082070 0.016712 -0.026018 -0.068691 -0.045792
var 0.058645 -0.595325 0.414193 -0.605099 0.089304 -0.239082 0.273475 -0.064845 0.071105 -0.208088 0.102577 0.032055 0.784049 -0.241203 -0.633402 -0.113056 0.559643 -0.049676 -0.777158 0.037232 0.180580 -0.630975 -0.317443 0.211946 0.332897 -0.068759 -0.218738 -0.072214 -0.026383 -0.311498 0.565644 0.069979 -0.464819 0.576451 0.355523 -0.456175 0.472940 0.335715 0.292586 -0.120339 0.154369 0.015221 0.248044 0.300809 -0.569306 -0.222515 0.028311 0.006964 -0.184118 0.110297
very -0.102519 -0.203102 0.059588 -0.249854 0.045019 -0.010891 0.224667 -0.102333 0.014503 0.005234 0.140031 -0.058426 0.136792 -0.015884 -0.108518 -0.083449 0.079498 -0.021660 -0.169243 -0.012419 0.078593 -0.085944 0.071235 0.073838 0.050178 0.007847 -0.084638 -0.048865 -0.044737 0.008003 0.269794 0.079944 -0.051499 0.210422 0.096272 -0.125959 0.016059 0.046683 0.053789 -0.094753 0.064209 0.046112 0.035577 0.003584 -0.006769 -0.028432 -0.089589 -0.139762 -0.074621 -0.047967
within 0.031989 -0.001760 -0.017775 0.008445 0.009734 -0.013623 -0.016746 0.030931 -0.075195 -0.056785 0.000332 0.018208 -0.025349 0.005709 -0.010664 0.026546 -0.015535 -0.010550 -0.002978 -0.016670 -0.019282 0.045136 0.032833 -0.007405 -0.010367 -0.026157 -0.031024 -0.016228 -0.029295 0.009109 -0.010262 0.011102 0.050400 0.009163 0.030728 -0.001399 0.007394 0.021119 0.000446 -0.006921 0.038128 0.038833 -0.007383 0.001330 -0.044273 0.049592 -0.021634 -0.009168 0.017292 -0.047717
(delta -0.214849 -0.402441 0.218828 -0.474443 0.037261 -0.115602 0.535909 -0.104527 0.150182 -0.031506 0.343715 -0.044658 0.292037 -0.081877 -0.316698 -0.177252 0.173456 -0.087644 -0.340659 -0.053144 0.104451 -0.135127 0.050071 0.048647 0.069139 0.020992 -0.122276 -0.006682 -0.123303 -0.037138 0.482741 0.236065 -0.134984 0.306487 0.285551 -0.230202 -0.067382 0.001520 0.102980 -0.201628 0.171890 0.080491 -0.018863 0.038383 0.085102 0.016637 -0.162555 -0.197340 -0.185880 -0.210255
-O3 -0.335916 -0.648768 0.230853 -0.737941 0.139806 -0.040587 0.738194 -0.402620 0.292601 0.021206 0.391424 -0.076272 0.411810 0.039067 -0.330327 -0.380547 0.290230 -0.018311 -0.473873 0.007899 0.265521 -0.271885 0.086669 0.105606 0.058987 0.012792 -0.201903 -0.046945 -0.184522 0.023585 0.849585 0.188891 -0.269018 0.426714 0.329135 -0.376106 0.068712 0.228779 0.157251 -0.224212 0.054597 0.230647 0.173971 -0.026118 0.127359 -0.147226 -0.210913 -0.360416 -0.466884 -0.053719
-Wall -0.339198 -0.658886 0.236251 -0.744585 0.136911 -0.034854 0.742994 -0.407429 0.302726 0.017848 0.386199 -0.076268 0.418537 0.049105 -0.332073 -0.382455 0.302091 -0.025271 -0.474972 0.007740 0.269572 -0.278045 0.095695 0.111688 0.066019 0.017650 -0.211621 -0.050051 -0.190252 0.019958 0.861868 0.196810 -0.278756 0.428892 0.336139 -0.389655 0.065907 0.240834 0.155369 -0.222191 0.053957 0.235765 0.182761 -0.029492 0.134810 -0.152439 -0.211262 -0.365038 -0.480319 -0.060843
LINQ -0.008106 -0.252943 0.113238 -0.222609 0.018132 -0.041424 0.135225 -0.047975 0.028140 -0.064559 0.053346 -0.057365 0.251162 -0.032944 -0.161567 -0.050520 0.185536 0.023429 -0.237778 -0.011475 0.161390 -0.213972 -0.032754 0.055542 0.103400 -0.005596 -0.099695 -0.048983 -0.082628 -0.031365 0.276550 0.083797 -0.102289 0.245121 0.122507 -0.168769 0.140934 0.064413 0.064198 -0.096660 0.103862 0.075859 0.087400 0.049858 -0.132805 -0.075522 -0.092807 -0.115580 -0.084972 0.020146
Page -0.153851 -0.446932 0.179047 -0.485325 0.116232 -0.054448 0.449609 -0.164405 0.037372 -0.027162 0.281509 -0.094745 0.337199 -0.057529 -0.328892 -0.185338 0.196066 -0.075785 -0.399487 -0.019576 0.182981 -0.205158 0.041411 0.097027 0.115644 0.010409 -0.202559 -0.070200 -0.153983 -0.005529 0.522015 0.219590 -0.108323 0.392011 0.273385 -0.249501 0.089152 0.064983 0.113910 -0.170791 0.155427 0.111841 0.035907 0.049049 -0.053207 -0.034234 -0.189367 -0.251097 -0.194845 -0.070264
against -0.019193 0.008717 -0.030564 -0.006811 0.032768 -0.013441 -0.007604 -0.009447 -0.075759 -0.005168 0.014101 0.005015 -0.058001 -0.037950 0.013487 0.022532 -0.042131 -0.038652 0.006495 0.024138 -0.037287 0.077118 0.041898 -0.039514 -0.035787 0.021300 0.009143 -0.009705 -0.033578 -0.018613 -0.023915 0.016907 0.056980 0.002754 0.024684 0.008681 -0.075728 -0.009263 0.005771 -0.028308 0.018716 0.007946 -0.038558 -0.035922 0.026582 0.038049 -0.021678 0.002330 0.024592 -0.033803
doesn't -0.061734 0.009290 0.001537 -0.033588 0.002730 0.018758 0.107709 0.008856 0.060709 0.047763 0.056178 -0.018019 -0.033569 0.051850 0.019726 -0.073664 -0.040425 -0.008773 -0.012996 -0.027967 0.011885 -0.017325 0.025300 0.020059 -0.043447 0.044979 0.016494 0.005021 -0.051143 0.069235 0.032271 0.007420 0.032566 -0.015111 -0.000548 0.010318 0.020406 -0.010028 0.028359 0.012325 0.040653 0.007247 -0.047999 -0.033999 0.070209 0.018978 -0.002604 0.003228 -0.070516 -0.034744
files -0.045501 -0.021645 -0.031077 -0.037790 0.037951 0.033236 0.113542 -0.046903 0.043194 0.041713 0.064054 -0.010343 -0.011215 0.010936 0.041261 -0.060151 -0.054395 0.008278 0.001768 0.017353 0.034524 0.083613 0.055380 0.039374 -0.040263 -0.007153 0.001075 0.016326 -0.046371 0.069684 0.087543 0.034217 0.016172 0.015648 -0.004729 0.017899 -0.054183 -0.007884 -0.026860 -0.020886 -0.041612 0.047235 0.014162 -0.017158 0.094579 0.003439 -0.032090 -0.053475 -0.027992 -0.041411
garbage -0.049870 0.003951 -0.015305 -0.036633 0.019985 0.030942 0.071147 0.002709 -0.000297 -0.007725 0.050663 -0.040909 -0.038200 0.027424 0.021568 -0.043250 -0.035996 -0.033227 -0.040379 -0.010413 0.018674 0.011505 0.050902 0.013979 -0.024333 0.027101 -0.002060 0.013730 -0.049391 0.043464 0.024913 0.003611 0.028051 0.007777 -0.005727 -0.003819 -0.022023 -0.028193 0.011308 -0.019832 0.035151 0.039199 -0.028669 -0.034969 0.048145 0.022067 -0.011572 -0.020414 -0.035735 -0.055790
integer -0.458171 -0.630934 0.201869 -0.780184 0.184361 -0.083322 0.705813 -0.461417 0.222124 -0.012397 0.435791 -0.156214 0.345054 -0.037466 -0.448878 -0.272437 0.127329 -0.056152 -0.559361 -0.119332 0.390929 -0.397162 0.216427 0.099085 0.224814 0.030511 -0.242470 -0.075328 -0.301524 -0.079430 0.859852 0.256053 -0.199762 0.436524 0.384581 -0.222718 -0.021479 0.034920 -0.007010 -0.403992 0.293118 0.203856 0.162598 0.054167 0.199766 -0.073121 -0.262834 -0.481375 -0.295327 -0.047239
lot 0.114090 0.132064 -0.018153 0.197199 -0.105825 -0.002025 -0.260325 0.118543 -0.054123 -0.034205 -0.140426 -0.010551 -0.077317 -0.025556 0.064553 0.125737 0.027917 0.018603 0.142232 -0.004251 -0.016389 0.012255 -0.049922 -0.040040 0.043259 0.008392 0.024210 -0.007892 0.093520 -0.029060 -0.190650 -0.097403 0.030379 -0.092835 -0.094014 0.043203 0.038853 -0.049783 -0.060432 0.050938 -0.008067 -0.030188 0.022771 0.031725 -0.075886 -0.028934 0.058609 0.074749 0.088980 0.080876
me 0.030626 0.117905 -0.030160 0.126245 -0.018410 0.026367 -0.100798 0.001610 0.053972 0.053751 -0.077392 0.027646 -0.042580 0.028107 0.089541 0.029347 -0.061669 0.065489 0.106403 0.013171 -0.011483 0.053328 -0.008901 -0.009279 -0.030020 -0.025376 0.066698 0.020228 0.037808 -0.021939 -0.116853 -0.040292 0.026825 -0.103316 -0.089557 0.049337 -0.021098 -0.018280 -0.040476 0.074698 -0.049145 -0.070594 0.020756 0.000094 0.018351 -0.021848 0.008385 0.035361 0.031879 0.064641
name -0.083897 -0.194184 0.052643 -0.242427 0.040592 -0.006711 0.237530 -0.103779 0.016205 -0.038227 0.127336 -0.065179 0.109586 -0.031123 -0.115698 -0.093794 0.078449 -0.037705 -0.189962 -0.003481 0.076080 -0.100427 0.051587 0.056194 0.055304 0.007288 -0.061301 -0.060590 -0.087785 0.023398 0.260215 0.080404 -0.034936 0.178733 0.100492 -0.104506 0.000421 0.024193 0.064294 -0.099811 0.075207 0.078917 0.018172 0.030327 0.009055 0.005447 -0.086214 -0.146347 -0.078905 -0.064223
seems -0.046546 0.017716 -0.016795 0.024160 -0.000051 0.017509 0.024219 -0.034257 -0.009661 0.040320 0.022333 -0.016352 -0.031742 0.013045 0.043834 -0.003708 -0.033993 0.012764 0.039212 0.006885 0.020697 0.019919 0.038961 -0.013157 -0.020200 0.016787 0.017205 0.014266 -0.006125 0.011915 0.007443 0.028005 0.033410 -0.018768 -0.018780 0.016046 -0.056028 -0.014325 -0.005766 -0.000257 -0.014494 -0.002897 -0.019889 -0.003608 0.052932 0.030492 -0.008753 -0.001030 -0.000876 -0.000029
simple -0.069068 -0.119034 0.050705 -0.148271 0.024044 0.004313 0.098462 -0.060775 0.010977 -0.031020 0.106412 -0.036286 0.080486 -0.011260 -0.057809 -0.053121 0.046473 -0.017310 -0.086896 0.012202 0.043684 -0.074918 0.029102 0.040475 0.031182 0.027072 -0.037058 -0.026840 -0.054576 0.007551 0.180319 0.080501 -0.018925 0.101594 0.074944 -0.082428 0.014994 0.024982 0.022102 -0.064754 0.022286 0.050496 0.021026 0.031392 -0.002185 -0.032730 -0.078776 -0.077612 -0.045860 -0.010336
submit -0.139727 -0.229770 0.064267 -0.267110 0.105373 0.002510 0.329399 -0.136694 0.061173 0.035732 0.193115 -0.050822 0.091312 -0.011878 -0.149230 -0.163742 0.052113 -0.062141 -0.200413 -0.000448 0.096995 -0.058148 0.102692 0.053195 -0.004211 0.000411 -0.091324 -0.000523 -0.122964 0.032220 0.317412 0.126993 0.001310 0.210573 0.155192 -0.126563 -0.051480 0.001824 0.037417 -0.083076 0.044282 0.081670 0.013383 -0.033008 0.086761 -0.018581 -0.157531 -0.210858 -0.128689 -0.081983
sure -0.113403 -0.001126 0.031063 -0.036640 0.062643 0.006462 0.060921 -0.086078 -0.026415 0.035309 0.119411 -0.023974 -0.016143 0.008497 -0.008145 -0.014142 -0.025040 -0.087434 -0.033622 0.020365 -0.007120 -0.035765 0.091230 -0.007316 -0.050561 0.064514 0.018934 -0.033023 -0.025080 0.014315 0.084158 0.095825 0.027609 -0.025782 0.055333 -0.067338 -0.055262 -0.020771 0.047750 -0.079900 0.022403 0.070707 -0.087824 -0.049052 0.027838 0.094934 -0.054100 -0.019309 0.013348 -0.025282
type -0.040915 -0.084741 0.011111 -0.096360 0.033817 -0.037472 0.048042 -0.026138 -0.056196 -0.027377 0.034290 -0.038789 0.044875 -0.062685 -0.078078 -0.008600 0.036363 -0.010847 -0.078223 0.005770 0.029029 -0.077176 0.030423 -0.009580 0.035504 -0.004934 -0.045564 -0.036846 0.001498 -0.037957 0.097585 0.007099 -0.016229 0.097096 0.064189 -0.071310 -0.001476 -0.020815 -0.012026 -0.065926 0.015392 0.034091 0.016593 0.038642 -0.049997 0.007017 -0.043647 -0.063270 0.000082 -0.015501
web -0.062798 -0.180562 0.073899 -0.195896 0.025517 -0.045510 0.172252 -0.056789 0.030713 -0.009849 0.081996 -0.048877 0.151204 -0.044314 -0.098005 -0.072839 0.098841 -0.032613 -0.148628 -0.024992 0.094783 -0.095144 0.031771 0.061025 0.052125 -0.046320 -0.086576 -0.056763 -0.048501 0.006541 0.207372 0.083591 -0.097705 0.159873 0.113587 -0.086844 0.051981 0.039863 0.045530 -0.075133 0.073338 0.034752 0.063094 0.023126 -0.058656 -0.022889 -0.046636 -0.102541 -0.072901 -0.031539
where 0.000957 0.038007 -0.027666 0.038901 0.000930 -0.000460 -0.066280 -0.013966 -0.030240 -0.020957 -0.037998 0.024370 -0.031308 -0.007606 0.024500 0.059061 -0.008725 0.020609 0.043897 0.012196 -0.023228 0.032564 -0.008404 -0.006973 0.003998 -0.018717 0.019057 0.008813 0.043078 -0.026669 -0.063159 -0.018893 0.034348 -0.055015 -0.033770 0.034287 -0.004289 -0.018929 -0.020465 0.009745 -0.020841 -0.018367 0.011688 0.007456 -0.001259 -0.024449 0.005390 -0.001141 0.033793 0.041173
+= -0.246117 -0.393140 0.195611 -0.485073 0.169687 -0.113506 0.477813 -0.156780 0.100247 0.030029 0.338493 -0.154243 0.287200 -0.054258 -0.273201 -0.269878 0.148831 -0.105417 -0.394620 -0.033698 0.231887 -0.263443 0.111579 0.172417 0.087221 0.043278 -0.146612 -0.096992 -0.203627 0.037182 0.503233 0.160935 -0.141059 0.317867 0.235927 -0.274018 0.046028 0.103792 0.182220 -0.236626 0.144019 0.055430 -0.003782 -0.018073 -0.025308 -0.043001 -0.190023 -0.218541 -0.237762 -0.103901
PHP -0.038176 -0.101528 0.049648 -0.109932 0.001026 -0.017693 0.093931 -0.031026 0.028208 -0.015836 0.074873 -0.037604 0.100411 -0.031921 -0.030397 -0.034468 0.063884 -0.011061 -0.080823 -0.011428 0.060474 -0.059296 -0.004665 0.021966 0.045807 -0.001506 -0.042443 -0.006857 -0.033085 0.000548 0.105568 0.060683 -0.027201 0.109395 0.061180 -0.050030 0.030091 0.023159 0.009874 -0.049013 0.022851 0.050811 0.014323 0.032446 -0.014818 -0.017323 -0.066410 -0.071806 -0.010669 -0.027926
SQL -0.084105 -0.164431 0.070291 -0.182443 0.045113 -0.006883 0.228812 -0.073324 0.014537 -0.025553 0.106065 -0.042979 0.110500 -0.001566 -0.091241 -0.085424 0.082111 -0.028080 -0.155506 -0.030386 0.046911 -0.024604 0.064347 0.028953 0.026990 -0.006004 -0.060328 -0.005371 -0.075856 0.028583 0.188182 0.088543 -0.022909 0.140555 0.111526 -0.087299 -0.002975 0.012149 0.046531 -0.074736 0.041813 0.063136 0.025249 -0.022865 0.023553 0.002227 -0.054579 -0.108454 -0.059901 -0.078408
TortoiseSVN -0.063022 -0.082015 0.018865 -0.088452 0.018898 -0.020210 0.082241 -0.044688 -0.009316 -0.008234 0.063312 -0.033668 0.040204 -0.023922 -0.059689 -0.011414 0.030658 -0.005430 -0.073659 0.002611 0.035050 -0.028164 0.024938 0.015609 0.044595 -0.003198 -0.040911 -0.010589 -0.028056 0.019067 0.115078 0.049414 -0.004387 0.072584 0.060590 -0.038598 -0.021645 0.010101 0.018713 -0.030213 0.012892 0.044649 0.001293 -0.013706 0.016824 0.005419 -0.057704 -0.065224 -0.028251 -0.011704
Vista -0.102962 -0.133738 0.063967 -0.168196 0.042735 -0.016996 0.165061 -0.097850 0.021969 0.001162 0.109859 -0.048441 0.106393 -0.045096 -0.092133 -0.067363 0.032921 -0.021421 -0.115289 0.010469 0.071842 -0.078967 0.026743 0.012998 0.026392 -0.003208 -0.054490 -0.006900 -0.054366 0.023610 0.208039 0.068313 -0.037362 0.140571 0.085285 -0.076188 -0.019766 0.013616 -0.001337 -0.078553 0.050572 0.078238 0.014358 0.006899 0.029665 -0.000561 -0.087007 -0.095198 -0.044270 -0.036367
Windows -0.034805 -0.056196 0.028560 -0.058892 0.015628 0.001778 0.067174 -0.044162 -0.015578 0.004101 0.031902 -0.023115 0.071642 -0.048314 -0.031280 -0.035335 0.035245 -0.023914 -0.044030 0.030096 0.061108 -0.062306 -0.001944 0.022072 0.034967 -0.006772 -0.026335 -0.011288 0.000171 0.017791 0.074818 0.022957 -0.025448 0.089267 0.024574 -0.046794 0.024091 0.002737 -0.014372 -0.033250 0.018142 0.056595 0.018419 0.021991 -0.014570 -0.008911 -0.044897 -0.034506 0.018266 -0.000197
You -0.149693 -0.196270 0.053629 -0.260350 0.016951 0.023095 0.328664 -0.110032 0.120656 0.062374 0.181779 -0.082920 0.094501 0.036293 -0.079482 -0.174909 0.036581 -0.000638 -0.171270 -0.058062 0.122295 -0.086225 0.082466 0.093390 0.008129 0.025553 -0.056689 -0.060282 -0.116065 0.083555 0.306341 0.075465 -0.048161 0.157960 0.092738 -0.074969 -0.010189 -0.011808 0.062648 -0.081682 0.084806 0.044352 -0.004360 -0.002997 0.105357 -0.024215 -0.119118 -0.153191 -0.162256 -0.101870
able 0.013373 0.169061 -0.078644 0.140050 -0.016560 0.071735 0.008769 -0.006664 0.112174 0.095087 -0.045215 0.016395 -0.146948 0.107279 0.162592 -0.033938 -0.115141 0.059762 0.099032 0.020394 -0.036489 0.193945 0.083464 0.009664 -0.112343 -0.021943 0.083636 0.055295 0.003010 0.073828 -0.140059 -0.029332 0.068130 -0.100073 -0.124832 0.090313 -0.100921 -0.049850 -0.035104 0.078378 -0.109363 -0.074580 -0.004846 -0.069273 0.111850 -0.029779 0.021502 0.005158 -0.011413 -0.018066
answer -0.024028 -0.057504 0.007332 -0.045704 0.024395 -0.006282 0.032352 0.007225 -0.032490 -0.000751 0.038060 -0.024256 -0.001257 -0.027205 -0.003436 -0.024253 -0.003870 -0.055940 -0.027012 0.005328 0.008322 0.001019 0.058500 0.024480 0.006093 -0.007582 -0.025694 -0.017985 -0.016974 -0.006735 0.067429 0.036406 0.012896 0.049616 0.027896 -0.017908 -0.018462 0.020185 0.003808 -0.053950 0.003670 0.038569 -0.009339 0.004379 0.019079 0.014131 -0.031188 -0.052837 -0.012621 -0.009552
between -0.071366 -0.105929 0.007408 -0.144088 0.057449 -0.066372 0.089416 -0.011738 -0.063258 -0.018733 0.048650 0.000986 0.073620 -0.030338 -0.081191 -0.026056 0.017300 -0.021032 -0.062170 -0.031197 -0.011042 0.021149 0.064352 0.007759 0.000244 -0.010251 -0.061951 -0.013144 -0.069031 0.022352 0.143067 0.090480 0.002636 0.112080 0.082525 -0.061989 -0.062975 -0.007467 0.048938 -0.071841 0.068534 0.012250 0.007693 -0.033505 0.029197 0.028189 -0.085891 -0.088953 -0.022731 -0.061361
call -0.005432 -0.015167 0.006592 -0.011340 0.017162 -0.008246 0.035693 0.006671 0.004821 0.017953 0.013615 -0.008208 -0.026009 0.007372 -0.016751 -0.007196 -0.015952 0.004378 -0.005036 -0.012602 0.015884 0.035079 0.020065 0.003424 0.000255 -0.019873 -0.019911 0.007138 -0.006236 0.015217 0.036149 0.005999 -0.006557 0.011269 -0.013789 0.009146 -0.033662 0.011132 0.005875 0.013352 -0.009384 0.007207 0.001756 -0.004712 0.023928 -0.001517 -0.019200 -0.029521 0.000812 -0.028114
each -0.037522 -0.037632 0.005598 -0.040892 0.003596 -0.001613 0.029874 0.012116 -0.022940 -0.004648 0.026255 -0.032365 -0.009976 0.009734 -0.031436 0.026603 0.006791 -0.006258 -0.014752 -0.005065 0.057760 -0.007700 0.039708 -0.009544 0.030688 0.028738 -0.047440 -0.022003 -0.011505 0.013936 0.045071 0.028175 0.023625 0.051664 0.012238 -0.013909 -0.018951 -0.022181 0.027332 -0.045928 0.031854 0.046893 -0.014636 -0.012933 0.019578 0.015306 -0.039333 -0.027684 -0.018220 -0.019695
even -0.079345 -0.161844 0.074001 -0.185205 0.048466 -0.037702 0.162562 -0.066980 0.029059 -0.018251 0.115816 -0.031368 0.099764 -0.006438 -0.115007 -0.058192 0.060498 -0.022156 -0.142481 -0.039203 0.069571 -0.040482 0.043639 0.036463 0.029580 0.028152 -0.063561 -0.042617 -0.069691 -0.004384 0.207119 0.069687 -0.030930 0.133398 0.098203 -0.085407 0.009466 0.003672 0.050760 -0.063873 0.079319 0.050174 -0.009972 0.010749 0.004690 -0.012763 -0.078912 -0.076248 -0.068938 -0.059179
following 0.060273 -0.109969 0.054686 -0.086623 0.033540 -0.049098 -0.029048 0.021469 -0.090003 -0.083337 0.003288 0.017959 0.114083 -0.078343 -0.138384 0.054324 0.102300 -0.043272 -0.130639 0.001568 -0.027118 -0.065089 -0.077482 0.007225 0.054859 -0.018937 -0.048576 0.003732 0.016379 -0.099740 0.051592 0.025559 -0.056590 0.086108 0.074060 -0.072469 0.052183 0.072951 0.039275 -0.031460 0.039692 0.025718 0.020895 0.047300 -0.134290 -0.005895 0.015235 0.031267 0.028259 -0.017484
having -0.101452 -0.203092 0.094285 -0.220729 0.077795 -0.034006 0.195689 -0.094819 0.003652 -0.028653 0.143935 -0.040071 0.134381 -0.027897 -0.134327 -0.073097 0.099478 -0.055229 -0.170411 -0.019374 0.060741 -0.080451 0.059088 0.046480 0.050417 -0.005126 -0.058776 -0.035466 -0.067675 -0.032215 0.247629 0.121327 -0.027656 0.167225 0.138233 -0.117915 -0.003136 0.044639 0.044651 -0.094088 0.068376 0.082483 0.006922 0.015082 -0.011712 0.016060 -0.087989 -0.095370 -0.068194 -0.065062
look -0.052947 -0.112385 0.029239 -0.088962 0.015559 -0.001750 0.126416 -0.040946 0.037266 -0.013191 0.034707 -0.011697 0.094143 0.011430 -0.029278 -0.050753 0.034037 -0.012834 -0.082566 -0.018483 0.069831 -0.060432 0.004614 0.058669 0.014913 -0.003206 -0.044862 -0.010986 -0.033731 0.025387 0.109491 0.024869 -0.032392 0.086607 0.044326 -0.044469 0.040095 0.010834 0.049801 -0.009196 0.026625 0.031219 0.030266 0.001518 -0.007076 -0.028923 -0.048710 -0.062425 -0.052597 -0.018152
number 0.086762 0.090567 -0.051537 0.169701 0.017490 -0.022449 -0.187326 0.108347 -0.138591 -0.046403 -0.060660 0.035816 -0.169360 -0.002826 0.020962 0.133356 -0.099461 -0.046475 0.120041 -0.019043 -0.098423 0.157968 -0.006132 -0.086269 -0.017718 0.005149 0.004469 0.033925 0.041168 -0.012036 -0.172074 -0.039488 0.101138 -0.073641 -0.060655 0.051790 -0.066033 -0.039007 -0.034376 0.008595 -0.008967 0.015000 -0.059323 -0.047747 -0.001642 0.083893 0.043424 0.090144 0.116119 -0.048619
say -0.055448 0.020578 -0.009887 -0.021653 -0.003688 0.035694 0.073108 0.006040 0.040134 0.027225 0.038022 -0.028292 -0.062408 0.069348 0.043535 -0.040891 -0.050656 -0.015081 0.001176 -0.024193 0.004077 -0.003878 0.027069 0.022715 -0.058817 0.059245 0.016836 -0.015408 -0.052536 0.072318 0.050167 -0.010299 0.029872 -0.036832 -0.007735 0.026840 -0.030599 -0.026966 0.029725 0.028832 0.024889 0.002536 -0.035611 -0.026607 0.084864 0.015274 -0.004075 0.001655 -0.065421 -0.039731
still -0.065873 0.026166 -0.036792 -0.011151 -0.012498 0.063007 0.120666 -0.007614 0.075206 0.068421 0.040661 -0.012269 -0.051978 0.066378 0.043201 -0.069981 -0.070188 0.004847 0.026102 -0.025463 0.024187 0.050414 0.040804 0.031908 -0.050265 0.024577 0.000840 0.012461 -0.047099 0.089076 0.018675 -0.011489 -0.001855 -0.037403 -0.039594 0.032098 -0.055243 -0.048597 -0.006028 0.008809 -0.000093 -0.016839 -0.015203 -0.035833 0.124451 0.015754 -0.012814 -0.028286 -0.074096 -0.048074
thread -0.084070 -0.177833 0.046614 -0.176766 0.105820 -0.031981 0.173144 -0.084132 -0.059918 -0.035572 0.139290 -0.027187 0.041313 -0.055917 -0.138180 -0.041548 0.001859 -0.073056 -0.101169 0.001606 0.033490 -0.073150 0.052861 -0.015051 0.018803 0.031773 -0.068458 -0.011170 -0.070656 -0.013202 0.174003 0.091410 0.002399 0.153008 0.149906 -0.036035 -0.009655 0.036993 0.018048 -0.098988 0.046094 0.062458 -0.034939 0.007925 0.025952 0.067642 -0.067516 -0.071177 -0.037659 -0.063720
try 0.066359 -0.112238 0.099561 -0.100210 -0.011489 -0.058217 0.017916 0.018705 0.045626 -0.061932 -0.056691 0.030470 0.211151 -0.038420 -0.135660 -0.020279 0.162368 0.022616 -0.163948 -0.011932 0.046687 -0.175474 -0.111555 0.059824 0.106552 -0.051199 -0.027585 -0.005519 0.042253 -0.109884 0.064079 -0.022125 -0.145660 0.100738 0.063075 -0.091623 0.147674 0.102260 0.076546 -0.000763 0.034147 -0.039926 0.080630 0.105342 -0.180961 -0.111259 0.056782 0.055595 -0.015423 0.058176
works -0.067874 0.004170 -0.017910 -0.043327 0.035857 0.020801 0.036047 -0.041385 -0.010512 0.001224 0.063082 -0.012559 -0.029411 0.005083 0.013863 -0.011932 -0.034013 -0.007211 -0.004892 0.034461 0.015112 0.001380 0.064485 0.020298 -0.015711 0.028085 -0.006512 -0.009117 -0.052464 0.018200 0.036388 0.023169 0.058232 0.008811 0.010047 -0.035366 -0.031111 -0.007255 0.002434 -0.018959 0.021374 0.027191 -0.005728 -0.025576 0.057974 0.026368 -0.049481 -0.031140 -0.009481 0.000449
&amp;lt;input -0.205198 -0.389286 0.149393 -0.409238 0.112278 -0.033652 0.464267 -0.182819 0.078794 0.027007 0.262563 -0.082580 0.230696 -0.034018 -0.248374 -0.199311 0.165164 -0.086908 -0.350856 -0.015663 0.197167 -0.192698 0.102569 0.107200 0.070306 0.021934 -0.160121 -0.045435 -0.170846 0.034693 0.490658 0.177256 -0.069621 0.360326 0.238391 -0.218213 0.022237 0.026331 0.081696 -0.138702 0.114161 0.120054 0.061339 0.025118 0.044099 -0.063152 -0.222700 -0.301613 -0.191635 -0.087729
60{ -0.103933 -0.317838 0.203311 -0.358757 0.016578 -0.113426 0.392329 -0.053768 0.130827 -0.007015 0.259963 -0.025413 0.265832 -0.090471 -0.289644 -0.129598 0.184353 -0.043040 -0.237886 -0.059902 0.032889 -0.143758 0.031343 0.026981 0.062480 0.016519 -0.081120 0.015139 -0.073567 -0.045601 0.373885 0.170741 -0.132150 0.230617 0.225424 -0.170825 -0.037771 -0.020412 0.089151 -0.138612 0.149494 0.035458 0.010752 0.058445 0.025701 -0.001478 -0.112949 -0.160474 -0.132690 -0.195776
=&amp;gt; -0.214375 -0.438344 0.096767 -0.536170 0.098918 0.011120 0.444411 -0.255770 0.166096 -0.101456 0.234464 -0.155529 0.268509 -0.009439 -0.292308 -0.218413 0.174012 -0.046053 -0.424435 0.004320 0.176993 -0.175839 0.055848 0.132956 0.119346 0.011821 -0.222188 -0.139245 -0.204010 0.007460 0.535977 0.123236 -0.182350 0.381413 0.173897 -0.143739 0.072171 0.064015 0.093214 -0.159980 0.115311 0.127957 0.114893 0.073641 0.002880 -0.062871 -0.145454 -0.238065 -0.216687 -0.031913
But -0.001542 -0.002239 -0.001371 -0.020320 0.011995 0.003870 0.017077 0.017130 -0.005416 0.015344 0.018281 -0.022060 0.009826 0.003218 -0.025965 0.009149 0.005386 -0.032260 -0.005709 0.008712 0.014880 -0.017962 0.007251 0.020148 -0.000211 0.009364 -0.007837 -0.007073 -0.028011 0.005100 -0.013003 -0.006279 -0.005642 -0.011445 -0.008560 -0.007644 0.023019 -0.021145 0.020226 0.004413 0.012070 0.006528 -0.017763 -0.001391 -0.028076 0.012696 -0.000435 -0.002159 -0.002032 -0.015755
How -0.104636 -0.023512 -0.026967 -0.032749 -0.026198 0.011316 0.110129 -0.075981 0.058681 0.072992 0.069743 -0.045027 -0.030420 0.040616 0.008820 -0.078503 -0.049542 0.021498 0.021333 -0.043856 0.029748 0.027627 0.008806 0.007057 -0.015857 0.018722 0.037195 -0.000492 -0.075217 0.040764 0.063310 -0.009040 -0.021520 -0.013713 -0.006251 -0.003982 -0.028181 -0.026814 0.024364 0.018856 0.002542 -0.010657 -0.011570 -0.039122 0.115212 -0.044185 -0.050162 -0.083806 -0.083939 0.007656
My -0.055630 -0.114612 0.037860 -0.142592 0.041287 -0.009579 0.131566 -0.084363 -0.002649 -0.023945 0.102566 -0.037424 0.091973 -0.044661 -0.093993 -0.070917 0.065858 -0.029142 -0.109634 0.012603 0.067975 -0.073153 0.049854 0.035576 0.034608 -0.007158 -0.046886 -0.019246 -0.062427 -0.001911 0.177962 0.063513 -0.029679 0.140378 0.073831 -0.084610 0.013902 0.001367 0.015258 -0.062730 0.025745 0.062200 0.030062 -0.002381 -0.008041 -0.007420 -0.055379 -0.109639 -0.058604 -0.009783
\ -0.098353 -0.368531 0.177138 -0.378877 0.060757 -0.088214 0.251876 -0.124457 0.054147 -0.016279 0.138185 -0.032173 0.351991 -0.110381 -0.282052 -0.164286 0.224201 -0.056624 -0.362523 0.006349 0.161757 -0.288345 -0.105540 0.135174 0.165362 -0.029112 -0.107218 -0.047748 -0.058934 -0.086097 0.315125 0.065053 -0.242218 0.303388 0.186397 -0.199797 0.178503 0.130035 0.159090 -0.067392 0.076819 -0.003379 0.145860 0.093660 -0.148948 -0.090956 -0.032131 -0.126138 -0.138831 0.066428
actual -0.059642 -0.069505 0.003692 -0.082097 0.038320 -0.019178 0.105912 -0.089221 -0.009242 0.003771 0.075043 -0.027050 0.005662 0.019059 -0.043924 -0.013843 -0.006755 -0.030502 -0.062395 -0.018967 0.030529 0.026933 0.072619 -0.016976 -0.005546 -0.001148 -0.068566 -0.021490 -0.036933 0.035880 0.133185 0.056563 0.041502 0.073624 0.055524 -0.043505 -0.056667 0.006787 0.011386 -0.052625 0.017556 0.049827 -0.017827 -0.062103 0.063024 0.054953 -0.056606 -0.088593 -0.035731 -0.034570
ago;}if -0.181631 -0.310559 0.163568 -0.373040 0.043873 -0.085537 0.419469 -0.106014 0.112834 -0.015516 0.283929 -0.040012 0.207709 -0.049230 -0.247779 -0.145655 0.116723 -0.067162 -0.259584 -0.037668 0.094638 -0.098986 0.046793 0.038890 0.044866 0.015466 -0.102968 -0.015525 -0.103003 -0.021047 0.384394 0.188464 -0.099774 0.237734 0.220668 -0.169392 -0.066455 -0.001730 0.068378 -0.162700 0.131991 0.061774 -0.019656 0.029621 0.071038 0.005670 -0.136804 -0.153161 -0.140302 -0.166629
anyone -0.097736 -0.127893 0.055665 -0.165229 0.017736 -0.018710 0.177764 -0.069539 0.045561 0.017291 0.115515 -0.033304 0.096884 -0.016412 -0.071737 -0.065954 0.063971 -0.041954 -0.131531 -0.023624 0.041364 -0.037076 0.038412 0.009232 0.029651 0.034417 -0.049452 -0.017364 -0.055850 0.021551 0.185988 0.058820 -0.040172 0.095997 0.087958 -0.067669 -0.018005 0.009371 0.040642 -0.093069 0.066978 0.025057 -0.001496 -0.014927 0.030036 -0.002940 -0.067565 -0.073925 -0.078347 -0.056818
changes -0.021724 0.014584 -0.036818 -0.011168 0.018937 0.031673 0.055561 -0.059556 0.026834 0.028014 -0.008598 0.005444 -0.025011 0.034792 0.043294 -0.041944 -0.034638 0.017139 0.014087 0.024916 0.013597 0.086939 0.076675 0.013719 -0.038468 -0.018353 -0.021883 0.032329 -0.005263 0.026788 0.011777 0.017088 0.035918 0.002771 -0.013060 0.001804 -0.040342 -0.024039 -0.018323 0.009802 -0.041436 0.001807 0.005114 -0.061904 0.051605 -0.003929 -0.045565 -0.056319 -0.016422 0.009849
every -0.092463 -0.146254 0.051266 -0.180312 0.064526 -0.010110 0.181347 -0.105314 0.060070 0.014815 0.086095 -0.024061 0.104768 0.004758 -0.110508 -0.105639 0.038367 -0.024034 -0.111976 -0.008209 0.074878 -0.040337 0.036951 0.062618 0.007142 -0.031655 -0.045142 0.007551 -0.068874 0.011084 0.201412 0.062058 -0.049901 0.138237 0.069277 -0.076637 -0.019159 0.020484 0.046516 -0.040587 0.025125 0.031536 0.035957 -0.003453 0.035920 -0.045622 -0.088735 -0.109604 -0.087985 -0.030051
inside 0.065464 0.046399 -0.038440 0.104449 0.014074 -0.025572 -0.151153 0.046928 -0.093073 -0.043268 -0.036048 0.034088 -0.049991 -0.009743 0.015812 0.104321 -0.028842 -0.003282 0.063579 0.003137 -0.057025 0.059006 -0.027207 -0.059348 -0.001691 0.015694 0.039129 0.027416 0.028095 -0.046617 -0.101057 -0.018380 0.056367 -0.053108 -0.021782 -0.001253 -0.026868 0.015900 -0.023096 0.043024 -0.014015 0.013227 -0.022025 -0.019461 -0.029817 0.034918 0.031653 0.089740 0.071081 0.013380
isn't -0.027721 -0.003426 0.012762 -0.003091 -0.010164 -0.020924 -0.041487 -0.030486 -0.003405 0.012107 0.000398 0.007439 0.021802 -0.024007 0.001785 -0.010908 0.017936 0.002322 0.009100 0.010382 0.020820 -0.015595 0.008266 -0.011134 0.032166 -0.005713 0.000128 0.001691 0.011380 -0.036862 0.019433 -0.005527 0.020279 0.016839 0.000415 -0.016450 -0.023945 -0.000763 -0.020218 0.000403 -0.001793 0.012684 0.016932 0.031534 0.003847 -0.030872 -0.005159 -0.009693 0.015463 0.048235
its -0.093451 -0.123869 0.053443 -0.182520 0.045672 -0.005714 0.188943 -0.069627 0.029488 0.021703 0.113764 -0.044452 0.057227 -0.019564 -0.059345 -0.100657 0.046021 -0.061061 -0.116912 0.016754 0.055312 -0.064825 0.048598 0.051143 0.024638 0.006278 -0.041506 -0.018917 -0.051531 0.028853 0.186865 0.073121 -0.015467 0.104251 0.066665 -0.097357 -0.009574 0.014410 0.043691 -0.064401 0.038018 0.048716 -0.001820 -0.016828 0.040711 -0.015275 -0.069791 -0.091101 -0.090276 -0.044544
link 0.021105 -0.000866 0.008372 -0.008600 -0.014149 -0.005426 0.000223 -0.019924 -0.004599 0.004042 -0.004044 -0.009377 -0.009260 0.016802 0.015228 -0.004211 0.018810 0.026475 -0.012710 -0.007136 0.026628 0.036594 0.029277 -0.025040 -0.020075 -0.041909 -0.047560 -0.016232 0.022423 0.020060 0.007927 0.021961 0.026808 0.023284 -0.008409 -0.017638 -0.008235 -0.009771 -0.021282 -0.020046 0.003876 0.009755 0.019203 -0.032011 0.008852 -0.020789 -0.044748 -0.045496 -0.004353 0.008047
looks -0.087381 -0.045974 -0.022332 -0.092424 0.051989 -0.011989 0.097388 -0.143438 -0.010305 0.019751 0.135815 0.036827 0.005306 0.037075 0.030897 -0.084715 -0.040925 -0.003062 -0.039096 0.040345 0.032607 -0.035642 0.080618 0.032600 -0.028505 0.019987 0.023023 0.026192 -0.060809 0.002428 0.176049 0.100890 0.075516 0.076999 0.075508 -0.053358 -0.042608 0.023465 0.021689 -0.022990 0.011882 0.033751 -0.032285 0.008429 0.120548 0.041143 -0.053917 -0.037317 -0.046087 -0.009498
most -0.007874 -0.048324 0.003133 -0.034903 0.040645 -0.032384 0.004357 0.005698 -0.054676 -0.042994 0.003739 -0.016251 0.006027 -0.027103 -0.040383 0.024077 -0.003589 -0.030605 -0.042623 0.013296 -0.033137 0.024179 0.000617 -0.026580 0.001767 0.009718 -0.009978 0.011948 0.001611 -0.047695 0.018510 0.013103 -0.008434 0.011843 0.047179 -0.009577 -0.007025 0.008334 0.014219 -0.028212 0.011818 0.033932 -0.017298 0.028950 -0.039841 0.013062 0.002812 -0.002826 0.014335 -0.015607
much -0.088353 -0.159401 0.043108 -0.152268 0.013907 -0.005823 0.153779 -0.084734 0.080976 0.033910 0.091092 -0.015773 0.109949 0.004162 -0.059754 -0.059427 0.026896 0.016121 -0.083187 0.007581 0.110361 0.017457 0.070500 0.049842 0.045208 -0.017571 -0.050604 -0.017343 -0.075319 0.017337 0.205304 0.094251 -0.011633 0.136808 0.071382 -0.068985 -0.026909 0.032508 0.001093 -0.068327 -0.010592 0.010846 0.074662 0.009844 0.094680 -0.029322 -0.126606 -0.132936 -0.062034 -0.012102
no -0.032871 -0.103425 0.054985 -0.116446 0.010707 -0.011397 0.117472 -0.029244 0.007323 -0.031659 0.053754 -0.044615 0.108680 -0.022404 -0.076143 -0.034178 0.081207 -0.009360 -0.115673 -0.003279 0.062827 -0.070485 -0.021577 0.037016 0.036112 0.024062 -0.058435 -0.025691 -0.054781 0.016709 0.127548 0.050551 -0.070671 0.103778 0.069014 -0.062215 0.051373 0.029273 0.049258 -0.033176 0.041362 0.036179 0.018709 0.029529 -0.032593 -0.011540 -0.026546 -0.038943 -0.048766 0.005224
own -0.059773 -0.079327 0.044225 -0.151697 0.023397 0.055360 0.214265 -0.012633 0.083347 0.025423 0.078967 -0.028700 0.004837 0.032804 -0.028402 -0.118744 0.012809 -0.029513 -0.092760 -0.016731 0.025801 -0.086877 0.002506 0.040600 0.005913 0.013009 -0.010241 -0.006775 -0.044567 0.069337 0.134873 0.025952 -0.030054 0.070729 0.017537 -0.010569 0.011645 0.020518 0.040540 -0.022059 0.016188 -0.004060 -0.022189 -0.032481 0.065686 -0.025826 -0.004898 -0.063014 -0.104294 -0.061673
pitimes.c -0.253745 -0.508261 0.182840 -0.559177 0.104779 -0.030575 0.572883 -0.308094 0.238709 0.022286 0.308039 -0.056146 0.324403 0.022839 -0.247331 -0.301098 0.236632 -0.004983 -0.367924 0.015521 0.217035 -0.225254 0.059260 0.089805 0.051674 -0.004738 -0.148255 -0.039673 -0.130357 0.015504 0.651444 0.135240 -0.213515 0.334565 0.262228 -0.279806 0.068665 0.179525 0.118312 -0.178590 0.034378 0.165193 0.141821 -0.006532 0.092774 -0.123041 -0.154020 -0.279156 -0.365232 -0.034346
problems -0.088971 -0.136723 0.041123 -0.157974 0.037683 -0.014603 0.173774 -0.086553 0.021974 -0.010630 0.110292 -0.038669 0.072105 -0.016682 -0.073813 -0.047800 0.039806 -0.016032 -0.137432 0.003326 0.062762 -0.036770 0.049873 0.020441 0.016934 0.025985 -0.034263 0.002139 -0.070351 0.012462 0.209522 0.093720 -0.021181 0.117771 0.089588 -0.073864 -0.019610 0.022321 0.039950 -0.079578 0.019693 0.031222 0.035644 0.001955 0.053624 0.020603 -0.077913 -0.097170 -0.054524 -0.058583
process -0.061586 -0.110112 0.019338 -0.109334 0.063800 -0.026093 0.085412 -0.074429 -0.036130 -0.027376 0.063039 -0.007785 0.030720 -0.036168 -0.070016 -0.007875 0.020337 -0.036135 -0.069609 -0.012470 0.033759 -0.006049 0.048626 -0.003374 0.003696 0.021075 -0.039499 -0.027829 -0.039441 0.003913 0.118403 0.052121 0.001322 0.100665 0.064766 -0.038093 -0.017973 0.008205 0.029359 -0.059564 0.015642 0.049564 0.001767 0.007455 0.012018 0.020695 -0.050910 -0.071556 -0.013712 -0.027003
put 0.022148 0.080779 -0.060113 0.077514 0.017121 0.030149 -0.072551 -0.002904 -0.012510 0.015097 -0.037523 0.012242 -0.098043 -0.004283 0.076989 0.029970 -0.090330 0.007057 0.096809 0.046422 -0.062214 0.101217 0.010970 -0.057559 -0.043286 -0.010990 0.057958 0.013756 0.005980 0.020590 -0.076399 -0.025024 0.062646 -0.087454 -0.041980 0.051121 -0.068281 -0.017973 -0.058570 0.044678 -0.074133 0.001778 -0.031877 -0.038009 0.069716 0.023147 0.027166 0.022766 0.057916 0.019159
references -0.102638 -0.114916 0.016604 -0.153368 0.052964 0.015432 0.189670 -0.071918 0.020689 0.005250 0.112550 -0.057349 0.023831 0.007233 -0.060953 -0.066528 0.007908 -0.028457 -0.110949 -0.009395 0.035313 -0.024962 0.060023 0.046051 -0.004141 0.000545 -0.040411 0.009666 -0.093345 0.053363 0.161530 0.053596 -0.015051 0.085159 0.065664 -0.057297 -0.036469 -0.025491 0.035759 -0.065526 0.048853 0.050473 -0.014666 -0.042160 0.052874 0.011196 -0.078774 -0.097179 -0.098692 -0.075487
set -0.039559 -0.075824 -0.009243 -0.087906 0.060792 -0.016469 0.070172 -0.049421 -0.034993 0.000149 0.065727 -0.035233 -0.012858 -0.033954 -0.065438 -0.013411 -0.031416 -0.039273 -0.053442 0.011456 0.008974 0.054217 0.041382 -0.005525 -0.011879 0.004681 -0.034390 -0.007388 -0.031559 -0.003669 0.103136 0.062305 0.032239 0.048404 0.064799 -0.018194 -0.059557 -0.012718 0.011334 -0.042013 0.022843 0.059240 -0.034190 -0.028279 0.037385 0.026243 -0.024026 -0.046038 -0.030826 -0.036308
should -0.062115 0.025006 -0.008211 -0.006897 -0.011145 0.078141 0.143068 0.001277 0.073671 0.060114 0.049570 -0.044768 -0.072592 0.081830 0.068400 -0.094010 -0.040906 -0.004706 -0.010316 -0.040959 0.037889 -0.027480 0.040094 0.039826 -0.059710 0.041747 0.016670 0.001643 -0.065085 0.106034 0.040131 -0.010905 0.017226 -0.022778 -0.035410 0.027691 0.009847 -0.040621 0.035329 0.025820 0.023101 -0.005982 -0.053107 -0.032390 0.097145 0.032573 0.006818 -0.026310 -0.089385 -0.051937
system 0.014804 -0.067242 0.053260 -0.064142 0.032183 -0.011924 0.004173 0.000416 -0.023117 -0.029294 0.024159 -0.015318 0.059237 -0.019316 -0.046365 -0.003415 0.047185 -0.016250 -0.057415 -0.008571 0.012240 -0.036656 -0.012648 0.004069 0.015121 -0.001710 -0.032639 -0.022426 -0.017252 -0.010651 0.080191 0.021961 -0.008941 0.080775 0.056011 -0.029542 0.036311 0.019829 0.031560 -0.022165 0.029887 0.019194 -0.002253 0.026267 -0.037767 -0.011162 -0.004429 -0.019927 -0.011930 0.009057
their -0.105949 -0.133876 0.049565 -0.182721 0.019132 -0.008944 0.219038 -0.100547 0.034654 -0.006691 0.116576 -0.025965 0.091102 0.004936 -0.075322 -0.078742 0.034842 -0.002571 -0.113159 -0.020317 0.073069 -0.048573 0.041535 0.041234 0.013511 0.010929 -0.038984 -0.017499 -0.054513 0.047391 0.204253 0.067948 -0.018461 0.122310 0.074757 -0.069199 0.000110 0.012954 0.038740 -0.075097 0.010994 0.045544 0.023686 -0.017401 0.036646 -0.039991 -0.076611 -0.121374 -0.080831 -0.041227
through 0.007267 -0.031664 0.007848 0.000600 0.032058 -0.001554 -0.003844 0.002613 -0.019658 -0.013493 0.019083 -0.014515 0.002515 0.005242 -0.028418 0.006680 0.006220 -0.014868 -0.026445 -0.032734 0.002226 0.002668 -0.002261 -0.008105 0.011909 -0.010998 -0.013009 -0.023576 -0.016177 0.000573 0.025737 0.012795 0.020331 0.021318 -0.004224 -0.030177 -0.003966 0.006078 0.021972 -0.004285 0.035378 0.016843 0.005615 0.006721 -0.032811 0.004653 -0.010879 -0.001272 -0.006101 -0.015820
time -0.108591 -0.064090 -0.014287 -0.098602 0.068945 0.020540 0.133876 -0.106323 0.049906 0.058351 0.065381 -0.023341 0.018048 0.012115 -0.013020 -0.090616 -0.040451 -0.016028 -0.039014 0.007553 0.051228 -0.001205 0.044176 0.022182 -0.031991 0.015028 -0.013046 0.007635 -0.077373 0.024204 0.125048 0.036958 -0.000848 0.065174 0.017730 -0.019513 -0.060542 -0.002589 0.005584 -0.026714 -0.007398 0.015822 0.005819 -0.027130 0.095752 0.017116 -0.056706 -0.108927 -0.066555 -0.018273
track -0.017673 -0.015853 0.000055 -0.019681 0.004476 -0.001833 0.051977 -0.029746 0.023072 0.023647 0.013117 0.018485 -0.019315 0.025133 -0.009287 -0.033236 -0.028676 -0.031131 0.010646 0.002343 -0.013632 0.054834 0.021992 -0.013564 -0.016896 -0.033915 0.000991 -0.003913 -0.005522 0.015879 0.015732 0.009334 -0.011683 0.005776 0.015141 -0.001266 -0.050377 -0.018665 -0.009433 -0.014762 -0.009617 -0.011319 -0.002868 -0.014456 0.021332 -0.002501 -0.009410 -0.014643 -0.005042 -0.030753
type=submit -0.216348 -0.506392 0.201609 -0.551913 0.134612 -0.049981 0.546441 -0.219167 0.074761 -0.002252 0.341171 -0.116438 0.357723 -0.044303 -0.344103 -0.226736 0.212929 -0.086283 -0.452597 -0.019004 0.227201 -0.231462 0.091047 0.111130 0.118116 0.016971 -0.227271 -0.076335 -0.191763 0.017117 0.620605 0.243095 -0.106214 0.463217 0.306058 -0.289487 0.062326 0.064334 0.131269 -0.198583 0.172867 0.133470 0.049061 0.036428 -0.011048 -0.055482 -0.247602 -0.335569 -0.242294 -0.101882
update 0.013637 -0.039801 0.041702 -0.051717 0.002476 -0.006398 0.031279 -0.037985 0.059926 0.011004 -0.026852 0.003448 0.074076 -0.022395 -0.036865 -0.018035 0.044407 0.032204 -0.041691 0.009699 0.032289 -0.027902 -0.008090 -0.011924 0.015275 -0.042559 -0.004574 -0.002003 0.012340 -0.027653 0.034493 0.011112 -0.038795 0.042590 0.012191 -0.023139 0.023233 0.019262 -0.017218 0.000694 -0.013508 -0.018176 0.054952 0.019148 -0.013044 -0.053383 -0.012490 -0.044294 -0.005455 0.030967
( -0.279703 -0.446732 0.160670 -0.547434 0.127387 -0.067775 0.485841 -0.293497 0.150590 -0.024167 0.271014 -0.091950 0.277392 -0.042023 -0.323888 -0.200294 0.127585 -0.044129 -0.447599 -0.076747 0.271374 -0.338087 0.106474 0.093067 0.168579 0.025170 -0.171286 -0.051823 -0.211473 -0.062845 0.607016 0.156731 -0.166267 0.328533 0.257851 -0.175349 0.064047 0.059899 0.030053 -0.265342 0.212247 0.130647 0.107920 0.057908 0.074015 -0.064992 -0.145217 -0.291237 -0.219117 -0.015445
(or -0.047016 -0.088867 0.046217 -0.091960 -0.012749 -0.024430 0.062954 -0.014845 0.025955 -0.022511 0.056055 -0.041333 0.104008 -0.017733 -0.049814 -0.023284 0.064904 0.016596 -0.089729 -0.017897 0.084932 -0.081124 -0.000361 0.063078 0.035933 0.030438 -0.047309 0.000186 -0.023969 0.002390 0.123211 0.034095 -0.043105 0.100403 0.050317 -0.041150 0.053584 0.026667 0.054441 -0.031250 0.056840 0.025233 0.018102 0.032964 -0.015414 -0.048655 -0.055804 -0.047436 -0.055369 0.002457
/> -0.081625 -0.148071 0.061467 -0.196948 0.049550 -0.006185 0.199705 -0.072667 0.009245 0.008963 0.117158 -0.034658 0.074024 -0.008840 -0.094085 -0.069511 0.038519 -0.019521 -0.139615 -0.002110 0.067887 -0.042363 0.055476 0.028405 0.029410 0.003671 -0.079669 -0.018577 -0.079262 0.035412 0.213107 0.071421 -0.002872 0.138246 0.097672 -0.079526 -0.004373 0.028844 0.057602 -0.062065 0.042874 0.050229 0.010733 -0.007383 0.027504 -0.003636 -0.078380 -0.113420 -0.094857 -0.061610
: -0.124636 -0.366331 0.147845 -0.393450 0.111159 -0.068397 0.339293 -0.097498 0.012625 -0.074748 0.195249 -0.094163 0.294143 -0.101434 -0.266798 -0.128712 0.175133 -0.047696 -0.352190 -0.035490 0.134885 -0.201661 0.015000 0.110856 0.133337 -0.011089 -0.136886 -0.055322 -0.107994 -0.026344 0.410917 0.129580 -0.134262 0.350410 0.230792 -0.196003 0.063149 0.077861 0.094793 -0.140327 0.155602 0.040912 0.029058 0.069053 -0.069377 -0.028202 -0.123087 -0.138434 -0.126198 -0.048320
== -0.215064 -0.140270 0.055140 -0.258548 0.152342 -0.018699 0.289245 -0.108792 0.049509 0.069518 0.226350 -0.110864 0.037251 0.027906 -0.060290 -0.177899 -0.038076 -0.088013 -0.159183 -0.025716 0.157667 -0.061953 0.172868 0.085092 -0.016699 0.057842 -0.070648 -0.063957 -0.171157 0.129607 0.281406 0.100042 0.024683 0.139145 0.079871 -0.117815 -0.038671 0.028479 0.080174 -0.156256 0.059619 0.045221 -0.058798 -0.088107 0.082255 0.018357 -0.133914 -0.172454 -0.146545 -0.089592
In 0.013552 0.006562 -0.013557 0.007951 0.004935 -0.012566 -0.068605 -0.008807 -0.042476 -0.015649 -0.039852 0.015754 -0.022989 -0.007341 0.011355 0.012324 -0.006273 -0.000012 0.038384 0.022551 -0.009702 0.011397 0.003531 -0.022808 -0.000600 0.016994 0.000595 -0.001238 -0.002389 -0.029232 -0.027903 -0.001019 0.024836 -0.010993 -0.004134 -0.003733 -0.011054 0.003249 0.002556 0.016867 -0.016463 0.023444 -0.010089 0.007923 -0.003811 0.001681 -0.002152 0.003543 0.034791 0.022094
Server -0.107586 -0.188801 0.088407 -0.242234 0.042247 -0.016153 0.265478 -0.121754 0.034840 -0.026830 0.136577 -0.041201 0.160481 -0.019931 -0.109374 -0.119376 0.106945 -0.032936 -0.189209 -0.010505 0.088995 -0.060168 0.069474 0.051281 0.052473 0.002583 -0.062387 -0.016703 -0.078048 0.011504 0.251205 0.101715 -0.049541 0.173455 0.122987 -0.112275 0.013027 0.031022 0.064055 -0.080279 0.058798 0.064951 0.047875 -0.018769 0.022015 -0.014803 -0.073825 -0.134883 -0.090501 -0.054749
anything -0.078492 -0.138144 0.066544 -0.168685 0.042784 -0.014271 0.188182 -0.095870 0.023264 -0.003955 0.122690 -0.013031 0.087884 -0.003253 -0.096753 -0.097486 0.042368 -0.013381 -0.129913 0.004659 0.073751 -0.038764 0.043460 0.020130 0.020866 0.007630 -0.043728 -0.032577 -0.076336 0.042202 0.208431 0.095335 -0.017077 0.145205 0.096735 -0.058432 -0.023198 0.008113 0.027238 -0.048436 0.050457 0.061906 0.020913 -0.006809 0.029991 -0.001117 -0.066270 -0.104557 -0.092989 -0.026988
believe -0.013281 0.063054 -0.013785 0.050921 -0.034282 0.011112 -0.039490 -0.007337 0.032023 0.018285 -0.015619 0.021709 -0.034496 0.040854 0.054818 0.036419 -0.062299 0.034602 0.077790 0.006670 -0.006028 0.073214 0.009293 -0.032754 -0.022167 -0.010096 0.015318 0.005283 0.012817 0.013925 -0.045788 -0.028519 0.018034 -0.059680 -0.036931 0.050443 -0.033991 -0.028842 -0.060478 0.034530 -0.047046 -0.042053 0.022248 -0.010278 0.081372 0.007025 -0.014282 -0.004706 0.028143 -0.002349
best -0.064712 -0.100656 0.022785 -0.118047 0.032204 -0.026500 0.122884 -0.081464 0.002352 0.006581 0.076239 -0.049213 0.001665 0.010470 -0.042412 -0.029924 0.006604 -0.015290 -0.058095 0.007113 0.036134 -0.002451 0.076241 0.025934 0.012923 0.014221 -0.054717 -0.036340 -0.028732 0.038378 0.153415 0.052087 0.012398 0.086060 0.064861 -0.046712 -0.062358 -0.003856 0.001563 -0.038510 0.025068 0.057693 0.003643 -0.026283 0.038722 0.022321 -0.072652 -0.101203 -0.063797 -0.028595
